id,agreeableness,conscientiousness,extraversion,neuroticism,openness,embed_0,embed_1,embed_2,embed_3,embed_4,embed_5,embed_6,embed_7,embed_8,embed_9,embed_10,embed_11,embed_12,embed_13,embed_14,embed_15,embed_16,embed_17,embed_18,embed_19,embed_20,embed_21,embed_22,embed_23,embed_24,embed_25,embed_26,embed_27,embed_28,embed_29,embed_30,embed_31,embed_32,embed_33,embed_34,embed_35,embed_36,embed_37,embed_38,embed_39,embed_40,embed_41,embed_42,embed_43,embed_44,embed_45,embed_46,embed_47,embed_48,embed_49,embed_50,embed_51,embed_52,embed_53,embed_54,embed_55,embed_56,embed_57,embed_58,embed_59,embed_60,embed_61,embed_62,embed_63,embed_64,embed_65,embed_66,embed_67,embed_68,embed_69,embed_70,embed_71,embed_72,embed_73,embed_74,embed_75,embed_76,embed_77,embed_78,embed_79,embed_80,embed_81,embed_82,embed_83,embed_84,embed_85,embed_86,embed_87,embed_88,embed_89,embed_90,embed_91,embed_92,embed_93,embed_94,embed_95,embed_96,embed_97,embed_98,embed_99,embed_100,embed_101,embed_102,embed_103,embed_104,embed_105,embed_106,embed_107,embed_108,embed_109,embed_110,embed_111,embed_112,embed_113,embed_114,embed_115,embed_116,embed_117,embed_118,embed_119,embed_120,embed_121,embed_122,embed_123,embed_124,embed_125,embed_126,embed_127,embed_128,embed_129,embed_130,embed_131,embed_132,embed_133,embed_134,embed_135,embed_136,embed_137,embed_138,embed_139,embed_140,embed_141,embed_142,embed_143,embed_144,embed_145,embed_146,embed_147,embed_148,embed_149,embed_150,embed_151,embed_152,embed_153,embed_154,embed_155,embed_156,embed_157,embed_158,embed_159,embed_160,embed_161,embed_162,embed_163,embed_164,embed_165,embed_166,embed_167,embed_168,embed_169,embed_170,embed_171,embed_172,embed_173,embed_174,embed_175,embed_176,embed_177,embed_178,embed_179,embed_180,embed_181,embed_182,embed_183,embed_184,embed_185,embed_186,embed_187,embed_188,embed_189,embed_190,embed_191,embed_192,embed_193,embed_194,embed_195,embed_196,embed_197,embed_198,embed_199,embed_200,embed_201,embed_202,embed_203,embed_204,embed_205,embed_206,embed_207,embed_208,embed_209,embed_210,embed_211,embed_212,embed_213,embed_214,embed_215,embed_216,embed_217,embed_218,embed_219,embed_220,embed_221,embed_222,embed_223,embed_224,embed_225,embed_226,embed_227,embed_228,embed_229,embed_230,embed_231,embed_232,embed_233,embed_234,embed_235,embed_236,embed_237,embed_238,embed_239,embed_240,embed_241,embed_242,embed_243,embed_244,embed_245,embed_246,embed_247,embed_248,embed_249,embed_250,embed_251,embed_252,embed_253,embed_254,embed_255,embed_256,embed_257,embed_258,embed_259,embed_260,embed_261,embed_262,embed_263,embed_264,embed_265,embed_266,embed_267,embed_268,embed_269,embed_270,embed_271,embed_272,embed_273,embed_274,embed_275,embed_276,embed_277,embed_278,embed_279,embed_280,embed_281,embed_282,embed_283,embed_284,embed_285,embed_286,embed_287,embed_288,embed_289,embed_290,embed_291,embed_292,embed_293,embed_294,embed_295,embed_296,embed_297,embed_298,embed_299,embed_300,embed_301,embed_302,embed_303,embed_304,embed_305,embed_306,embed_307,embed_308,embed_309,embed_310,embed_311,embed_312,embed_313,embed_314,embed_315,embed_316,embed_317,embed_318,embed_319,embed_320,embed_321,embed_322,embed_323,embed_324,embed_325,embed_326,embed_327,embed_328,embed_329,embed_330,embed_331,embed_332,embed_333,embed_334,embed_335,embed_336,embed_337,embed_338,embed_339,embed_340,embed_341,embed_342,embed_343,embed_344,embed_345,embed_346,embed_347,embed_348,embed_349,embed_350,embed_351,embed_352,embed_353,embed_354,embed_355,embed_356,embed_357,embed_358,embed_359,embed_360,embed_361,embed_362,embed_363,embed_364,embed_365,embed_366,embed_367,embed_368,embed_369,embed_370,embed_371,embed_372,embed_373,embed_374,embed_375,embed_376,embed_377,embed_378,embed_379,embed_380,embed_381,embed_382,embed_383,embed_384,embed_385,embed_386,embed_387,embed_388,embed_389,embed_390,embed_391,embed_392,embed_393,embed_394,embed_395,embed_396,embed_397,embed_398,embed_399,embed_400,embed_401,embed_402,embed_403,embed_404,embed_405,embed_406,embed_407,embed_408,embed_409,embed_410,embed_411,embed_412,embed_413,embed_414,embed_415,embed_416,embed_417,embed_418,embed_419,embed_420,embed_421,embed_422,embed_423,embed_424,embed_425,embed_426,embed_427,embed_428,embed_429,embed_430,embed_431,embed_432,embed_433,embed_434,embed_435,embed_436,embed_437,embed_438,embed_439,embed_440,embed_441,embed_442,embed_443,embed_444,embed_445,embed_446,embed_447,embed_448,embed_449,embed_450,embed_451,embed_452,embed_453,embed_454,embed_455,embed_456,embed_457,embed_458,embed_459,embed_460,embed_461,embed_462,embed_463,embed_464,embed_465,embed_466,embed_467,embed_468,embed_469,embed_470,embed_471,embed_472,embed_473,embed_474,embed_475,embed_476,embed_477,embed_478,embed_479,embed_480,embed_481,embed_482,embed_483,embed_484,embed_485,embed_486,embed_487,embed_488,embed_489,embed_490,embed_491,embed_492,embed_493,embed_494,embed_495,embed_496,embed_497,embed_498,embed_499,embed_500,embed_501,embed_502,embed_503,embed_504,embed_505,embed_506,embed_507,embed_508,embed_509,embed_510,embed_511,embed_512,embed_513,embed_514,embed_515,embed_516,embed_517,embed_518,embed_519,embed_520,embed_521,embed_522,embed_523,embed_524,embed_525,embed_526,embed_527,embed_528,embed_529,embed_530,embed_531,embed_532,embed_533,embed_534,embed_535,embed_536,embed_537,embed_538,embed_539,embed_540,embed_541,embed_542,embed_543,embed_544,embed_545,embed_546,embed_547,embed_548,embed_549,embed_550,embed_551,embed_552,embed_553,embed_554,embed_555,embed_556,embed_557,embed_558,embed_559,embed_560,embed_561,embed_562,embed_563,embed_564,embed_565,embed_566,embed_567,embed_568,embed_569,embed_570,embed_571,embed_572,embed_573,embed_574,embed_575,embed_576,embed_577,embed_578,embed_579,embed_580,embed_581,embed_582,embed_583,embed_584,embed_585,embed_586,embed_587,embed_588,embed_589,embed_590,embed_591,embed_592,embed_593,embed_594,embed_595,embed_596,embed_597,embed_598,embed_599,embed_600,embed_601,embed_602,embed_603,embed_604,embed_605,embed_606,embed_607,embed_608,embed_609,embed_610,embed_611,embed_612,embed_613,embed_614,embed_615,embed_616,embed_617,embed_618,embed_619,embed_620,embed_621,embed_622,embed_623,embed_624,embed_625,embed_626,embed_627,embed_628,embed_629,embed_630,embed_631,embed_632,embed_633,embed_634,embed_635,embed_636,embed_637,embed_638,embed_639,embed_640,embed_641,embed_642,embed_643,embed_644,embed_645,embed_646,embed_647,embed_648,embed_649,embed_650,embed_651,embed_652,embed_653,embed_654,embed_655,embed_656,embed_657,embed_658,embed_659,embed_660,embed_661,embed_662,embed_663,embed_664,embed_665,embed_666,embed_667,embed_668,embed_669,embed_670,embed_671,embed_672,embed_673,embed_674,embed_675,embed_676,embed_677,embed_678,embed_679,embed_680,embed_681,embed_682,embed_683,embed_684,embed_685,embed_686,embed_687,embed_688,embed_689,embed_690,embed_691,embed_692,embed_693,embed_694,embed_695,embed_696,embed_697,embed_698,embed_699,embed_700,embed_701,embed_702,embed_703,embed_704,embed_705,embed_706,embed_707,embed_708,embed_709,embed_710,embed_711,embed_712,embed_713,embed_714,embed_715,embed_716,embed_717,embed_718,embed_719,embed_720,embed_721,embed_722,embed_723,embed_724,embed_725,embed_726,embed_727,embed_728,embed_729,embed_730,embed_731,embed_732,embed_733,embed_734,embed_735,embed_736,embed_737,embed_738,embed_739,embed_740,embed_741,embed_742,embed_743,embed_744,embed_745,embed_746,embed_747,embed_748,embed_749,embed_750,embed_751,embed_752,embed_753,embed_754,embed_755,embed_756,embed_757,embed_758,embed_759,embed_760,embed_761,embed_762,embed_763,embed_764,embed_765,embed_766,embed_767
-Areopagan-,0.0,0.96,0.6,0.01,0.99,0.838169,-0.35379168,1.0413888,-0.749519,-0.44228205,0.6126869,-0.00056862086,-0.31335756,0.7283204,-0.65879226,-0.40052193,0.8028842,-0.3093003,0.13850634,-0.5393926,0.77500266,-0.3031154,0.21514638,0.6699368,0.5808714,0.299657,-0.5518843,-0.4907345,0.14964339,0.30038142,-0.4515056,-0.15277976,-0.5235973,0.024826806,-0.768582,-0.7685331,-0.3566833,-0.82442296,0.14783886,0.20694765,-0.3960453,1.013631,0.6318474,0.55318487,-0.07101015,-0.1619407,-0.2459763,0.9858028,0.551725,0.7777001,-0.8463135,-0.76473033,1.2934523,-1.0768912,-0.40995494,-0.46169406,-0.86548823,-0.93946075,-0.10274551,-0.20697913,-0.653626,0.69465,0.007951384,-0.6106194,-0.2737421,0.9819229,-0.61019266,0.15852134,-0.58821195,0.25366107,0.6859405,0.33569044,-0.5739562,0.5424267,0.40770537,-0.9185068,0.01985603,-0.28524527,0.82385314,-0.37871084,-0.53473973,-0.90240747,-0.32060298,-0.548297,-0.8556369,-0.64464074,0.56710184,0.54263914,0.91224253,-0.55756104,-0.2811242,-0.09380585,0.74238896,0.71693933,0.632849,0.94232017,-0.62326986,0.3945289,-0.13197199,0.61482346,-0.34327266,-0.38222972,-0.6723945,-0.42046118,1.1025667,0.74137557,0.48867965,0.45413747,0.631548,-0.085804775,-0.89601505,-0.4755776,-0.68317837,0.53557533,-0.5876924,1.0960948,-0.86631566,0.03211543,0.5768971,-0.06816502,0.037884895,0.87137157,0.6559464,0.8897691,0.3746142,0.05368055,0.24264614,0.9579647,0.048256986,-0.5477886,-0.5497743,-0.33239967,0.31168407,-0.41710147,-0.8827998,-0.6992611,-0.9079801,0.54187095,-0.5125277,-0.0020184994,0.5627585,0.63048637,-0.06778656,-0.6351069,-0.97161424,0.7835967,-0.6834955,1.0015714,0.36625314,0.56642807,-0.28024688,-0.016904373,0.5610518,0.3176764,-0.1913096,-0.9079111,-0.05483328,0.3395897,-0.26388624,-0.6808845,-0.367026,0.66989577,0.008856962,0.6774415,-0.68359756,-0.25008264,-1.013924,-1.340004,1.1655004,0.8081999,0.18852413,0.21486458,-0.23733333,0.5411967,0.6081357,0.027665913,-0.39188814,-0.76334804,-0.283219,0.6041784,-0.46546778,-0.9378107,-0.7782584,-0.72879994,0.88911027,-0.6657899,0.21305433,0.83480585,-0.69474953,0.6590003,-0.1239149,0.33611044,0.33380905,0.63587296,-0.4672483,-0.8382015,-0.76377654,0.3668214,-0.5805834,-0.43727893,0.71612597,0.39409673,-0.7074488,1.0009782,-0.11396246,0.6005076,0.4974541,-0.45222226,0.7634209,0.4383294,-0.14740323,-0.91001046,-0.3524219,0.04842458,-0.32163462,0.12962227,0.5374756,-0.39779472,0.58670944,0.37077475,-0.8531779,-0.261253,-1.1268914,0.88372755,0.1797833,0.8129524,0.9610795,0.28989476,-0.49898404,0.25804,-0.23893681,0.31411955,-0.57447815,-0.31173855,-0.46679625,-0.1263888,0.8234866,0.4695252,0.396503,-0.05693094,-0.13790192,0.39918327,0.18813658,-0.8374645,-0.281801,-0.1558885,-0.25766852,0.50897694,0.2335802,0.0153166,-0.7764675,-0.8185781,1.0266118,-0.58767235,0.43404117,-0.60516286,0.27284583,-0.8583604,-0.86125785,-0.6298624,-0.42743555,0.4485705,-0.74317807,0.34667844,0.39349526,0.7452271,-0.92834395,0.86479807,0.6947032,0.6563575,-0.62211293,-0.16768052,0.45537138,-0.6759061,-0.056921203,-0.4887446,-0.48708874,-0.4391446,-0.4383823,0.39265957,0.40006337,0.83264315,0.6559602,0.7366136,-1.1234168,-0.83388937,0.7477206,0.26764694,0.5571706,-0.6055587,-0.21791902,0.6890227,0.81360644,-0.43291745,-0.14125079,0.44213527,0.77156925,0.4029661,-0.31971353,0.14348088,-0.69236875,-0.6632124,0.27676144,0.069010004,-1.0187414,1.0361071,0.3748796,-0.77709264,0.4668768,-0.041127678,0.6825272,0.1685359,0.59156644,0.34954387,-0.5597383,0.71539474,0.56573683,-0.56858903,0.63889354,-0.3768793,-0.44734412,-0.16893688,-0.15875617,0.11628325,-0.18693021,-0.36064622,0.4812092,-0.31508663,0.6208827,-0.3232917,-0.11666522,-0.9835771,-0.73654723,-0.5497147,0.27401072,-0.22219193,-0.7374276,0.16950457,0.93376637,0.43554077,-0.80196726,0.87445194,-0.6192962,-0.7431226,-0.14808896,-0.51949644,-0.52567315,-0.3795607,0.5878092,-0.59675467,-0.6227335,0.22628358,-0.49173003,0.72704756,0.45196456,0.25144726,0.09382772,0.693325,-0.081415586,0.16301994,0.5192606,0.787111,-0.058001596,0.86573905,-0.5210676,-0.1689239,-0.30588818,-0.7557564,-0.6274773,-0.05451389,-0.27159995,-0.76286757,-0.31133404,-0.623181,0.6708295,0.50937426,-0.091763556,0.35811013,-0.18368441,-0.38737053,-0.102828875,1.2714579,-0.12664266,0.23934302,0.25094298,-0.33811635,-0.7369455,0.3050054,-0.22063756,-0.7102949,0.6670771,0.5209042,0.19042666,-0.41720182,0.13513505,-0.4523801,0.6174381,-0.63242406,0.9468296,-0.64767015,0.7290321,0.48986644,-0.6826851,-0.39964065,-0.46079177,-0.39332706,0.9336567,0.7134325,0.4128646,-0.60306287,0.6873792,-0.70507765,0.7903768,0.46195856,-0.38348547,0.08751538,-0.6604391,0.58686715,0.2419775,-0.9075602,0.42791086,-0.15401848,0.9186414,0.31667644,0.46128434,-0.13242163,-0.73569,-0.60728174,-0.53259045,0.8811612,0.84236795,-0.16868332,-0.7238909,0.6673515,-0.2822495,-0.10589175,0.70601666,-0.7868351,0.8714854,-0.82621604,-0.6909751,0.18617353,-0.61098063,0.6262362,-0.29108378,0.3767791,0.33837917,-0.5894028,-0.8242496,0.7166015,-0.30897945,-0.91159475,0.15123582,-0.3552102,0.58455956,-0.13033596,-0.3267423,0.5423199,-0.4429737,0.29779404,-0.6575152,0.010532791,-0.43700218,-0.5611528,-0.59652954,0.363705,-0.4211629,-0.46660906,0.94981897,-0.7470294,1.0495317,-0.46900982,-0.39032957,-0.5476535,0.66159666,0.60202754,1.2756414,0.03939327,0.98594034,-0.5372115,0.57626057,-0.13095291,0.90798414,0.3681388,-0.6526861,-0.7473821,-0.15761136,-0.043645017,-0.80508536,0.0575881,0.35947734,0.120670296,-0.37394005,0.64155644,-0.47481567,-0.6852847,-0.46079654,0.4245093,-0.500762,0.75437546,-0.81673086,-0.73210824,-0.45456767,-0.8809754,-0.5868739,0.79564923,-0.7414309,-0.28217673,-0.024843596,-0.20363244,-0.23962621,0.044452973,0.4454968,0.9434722,-0.18407275,-0.13782759,-1.0211074,0.24035946,-0.19311363,-0.21483476,-1.1530968,0.025118846,0.9369668,0.69867647,-0.73253316,0.41463786,-0.07873049,-0.7820613,0.6227371,-0.40949956,-0.40245658,-0.5974226,-0.17047772,0.0019941689,0.721089,-0.5577175,-0.09639711,-0.39381352,0.1430207,-0.23152609,0.27077836,-0.7827624,0.21870665,-0.20871572,-0.5761868,-0.6597888,0.66601235,-1.1292226,-0.73343873,0.5756294,0.65248096,0.2860786,-0.27541032,0.26686826,0.4745635,0.6104278,0.9510878,-0.16196634,-0.71931285,0.83060265,-0.45125365,-0.97417545,-3.5113487,0.79703075,0.3028531,0.26014334,-0.55880296,0.80865127,0.21854086,0.020890718,0.5791391,-0.47945818,-0.6026272,0.19229749,-0.74647695,-0.4954931,0.080759875,0.8292661,0.38070697,-0.6556083,-0.4791979,0.7690493,-0.7974981,0.4638013,-0.77875745,-0.17615142,-0.40850848,0.626531,0.96106803,-0.72565675,0.3449261,0.93937266,0.44072086,0.015797928,0.5905311,-0.62105846,0.5222938,-0.4472622,-1.152909,-0.46206897,-0.37275225,-0.52700317,0.72290874,0.6757649,-0.5576006,0.63997763,-0.92717093,0.016020328,0.7228024,-0.2740614,0.05509948,0.32215923,0.7336242,-0.21654916,-0.87921,0.20050733,-0.69499326,0.35795084,0.057982385,-0.15127932,0.46530485,0.3727489,0.73054796,-0.42214537,-0.5771086,-0.42930332,-0.22250608,0.23025882,-0.33359239,0.010614598,0.50276816,0.39719138,0.099114835,0.66562766,0.43343455,-0.7932018,0.4070475,0.87099993,0.95193166,-0.43860015,1.1246569,0.26458982,0.45075482,0.7380393,-0.533865,0.39169416,-0.75614184,-0.34000555,0.22387533,-0.6793305,-0.7639961,-0.33092847,0.7596232,-0.5938529,-0.37681183,0.5871377,-0.65773964,-0.2657844,0.32843825,0.42190266,0.19132155,-0.04554709,0.68471056,-0.6450704,0.96480083,0.50596166,1.1283967,-0.041084345,0.8136753,-0.9727184,0.40383157,0.34605187,0.9937566,-0.73607194,0.3081692,0.85744,1.0509559,0.4948918,0.44823653,-0.49603146,0.70596147,-0.52542263,-0.78562146,0.24709296,-0.41487306,-0.3634499,-0.7029108,-0.20884576,0.4793705,0.5424351,-0.102338,-0.39806798,0.50634766,-0.15945634,0.67011935,-0.60443974,0.6877221,0.711243,0.6207874,-0.20015442,-0.08387152,0.4444806,-0.6460212,-0.570255,-0.35420188,0.64945304,-0.048593532,-0.15338491,0.53318644,-0.68601435,-0.41324696,-0.119860984,0.46826205,0.49225616,-1.0631614,-0.6144191,-0.52957374,0.5824965,0.09926079,0.8586208,0.56188595,0.33193725,0.8190506,-0.79628336,-0.6402694,-0.10037824,-0.15758689,-0.59763014,0.1132472,0.98020077,0.37098947,-0.3443939,-0.80286044,0.42167082,0.8481366,0.4973691,0.2517112,-0.6363591,-0.35661164,0.5115341,-0.73734105,0.87183225,-0.34690878,-0.7829195,-0.5011097,-0.55124223,0.5476068,0.5680272,-0.016394546,0.0087389415,0.07194601,-0.58614916,-0.5813724,-0.24588266,-0.5117633,-0.27122208,-0.5555667,0.07919215,-0.69958913,-0.6152669,0.5291554,0.71045774,-0.1841521,0.051449228,0.9703156,-0.5754736,0.77689755,0.54902536,-0.628717,-0.46867543,-0.7510005,0.46491036,-0.24654993
-BigSexy-,0.39,0.01,0.18,0.04,0.92,0.75342375,-0.30444163,1.1570628,-0.5445888,-0.27163172,0.5394339,0.0529121,-0.30665955,0.5380635,-0.800791,-0.3612367,0.7316662,-0.49255428,0.21914107,-0.46999165,0.7047183,-0.36435613,0.31875855,0.5433476,0.414736,0.4046424,-0.44239688,-0.36717954,-0.04319638,0.15771712,-0.4621347,-0.045757346,-0.29148337,-0.21586457,-0.658219,-0.5509782,-0.38129646,-0.6884806,0.41690284,0.12160918,-0.2819028,0.85166985,0.5223074,0.30649996,0.0493758,-0.27768376,-0.21897788,0.8088321,0.56325465,0.6608235,-0.69050574,-0.8601413,0.86950576,-0.9082703,-0.15489309,-0.40110707,-0.72750497,-0.8135477,-0.045978572,-0.16368799,-0.4582988,0.35695022,0.051370215,-0.7274094,0.059391998,0.78335357,-0.74320924,0.5274075,-0.4703351,0.0031763033,0.53620964,0.52120215,-0.5351523,0.44670656,0.39572725,-0.7920932,-0.16025707,-0.0019638233,0.68691146,-0.15709183,-0.65340525,-0.5968801,-0.22275263,-0.5131937,-0.68889624,-0.3845438,0.45831442,0.48034593,0.6291642,-0.5719356,-0.16020755,-0.036466606,0.41704404,0.6344177,0.4428161,0.7380832,-0.3476057,0.46973526,-0.0026355288,0.73157,-0.13328841,-0.34421635,-0.45617437,-0.2903855,0.84821165,0.73079234,0.33698565,0.33296803,0.6046865,-0.100257784,-0.8468002,-0.40114364,-0.5204065,0.462059,-0.19465661,0.7787253,-0.60412115,0.080927975,0.39516845,-0.06698474,-0.008088174,0.67206174,0.5112107,0.78284085,0.19457728,0.101093315,0.3469923,0.769573,0.19980109,-0.28856412,-0.7126889,-0.23687087,0.12952931,-0.24103794,-0.7187178,-0.6838671,-0.7477174,0.59152067,-0.34678853,0.051998712,0.49358928,0.38700354,0.16247411,-1.1909267,-0.83292156,0.6124218,-0.6362685,0.89663446,0.26262972,0.65048563,-0.10404065,-0.11771286,0.33405575,0.2613038,-0.08950751,-0.81087947,-0.048128724,0.16739523,-0.15611544,-0.57575804,-0.21995251,0.6326528,-0.14527783,0.6970865,-0.59751093,-0.4480301,-1.0034631,-1.3842254,0.8997043,0.6034925,0.0692795,0.14311235,0.003624152,0.24410236,0.6299643,-0.16253728,-0.48121905,-0.79664546,-0.15044579,0.52527744,-0.3974008,-0.7068996,-0.51791763,-0.5662758,0.7379604,-0.6009223,0.14429978,0.60661197,-0.5867255,0.4680503,-0.08959944,0.4972558,0.25923988,0.6634514,-0.3257894,-0.69340014,-0.5765358,0.14857031,-0.47771713,-0.33204943,0.47190964,0.22561553,-0.48952287,0.9581516,0.038401924,0.28473485,0.19480887,-0.49559492,0.7925566,0.4919079,-0.22092777,-0.69131446,-0.070023194,-0.15262014,-0.3255218,0.071224056,0.55858076,-0.29524595,0.42574102,0.35932133,-0.69773734,-0.36522546,-1.0920293,0.70530164,0.20820254,0.5946901,0.7331179,0.18165849,-0.44571543,0.1850697,-0.04013351,0.19215396,-0.6391792,-0.27745306,-0.35162368,0.0122514935,0.74862516,0.31445062,0.18523525,-0.19532979,-0.061009243,0.29816097,0.10540302,-0.8331255,-0.22349043,-0.35248938,-0.29781428,0.39265049,0.012818803,-0.1499057,-0.56022143,-0.7758571,0.8819692,-0.41917664,0.5480402,-0.41289473,0.3141843,-0.80448174,-0.78178996,-0.41561678,-0.30827367,0.22037505,-0.68990576,0.19241443,0.19529234,0.6689093,-1.0349231,0.7516034,0.40764022,0.565134,-0.60956603,-0.0127682155,0.371152,-0.70878434,-0.16704294,-0.44452065,-0.47174475,-0.38733953,-0.162574,0.30469966,0.43378353,0.8254419,0.5927869,0.5302265,-0.9549148,-0.693712,0.6916404,0.4519501,0.4276885,-0.5968212,-0.20929866,0.6955291,0.8637453,-0.36259916,0.096135974,0.53874236,0.3625357,0.102833495,-0.23148508,0.12752466,-0.72755355,-0.56617314,0.08934449,0.19460078,-0.6878231,0.9877767,0.49656898,-0.6716032,0.27919537,-0.369507,0.5617259,0.2642186,0.43480888,0.15309116,-0.4686113,0.4623573,0.55418175,-0.41395155,0.47860652,-0.61385447,-0.74632704,-0.3537349,0.053478006,0.11442147,-0.22483157,-0.32028452,0.5915523,-0.17018433,0.45796794,-0.23769504,-0.0067113726,-0.8723106,-0.61919445,-0.40319332,0.15910384,-0.31953254,-0.4421611,0.09355654,0.62821317,0.10260812,-0.69768006,0.568449,-0.5031951,-0.6224059,-0.008950131,-0.3623913,-0.5230362,-0.18027785,0.6197566,-0.1978161,-0.5621701,0.32129028,-0.4077188,0.6014746,0.41264185,0.262934,0.24852593,0.54977727,-0.19238959,0.2212333,0.34403205,0.55017793,0.16751733,0.6880733,-0.4017748,0.028400553,-0.34812117,-0.53237295,-0.38204345,0.0010500085,-0.345225,-0.7125397,-0.1625925,-0.54861295,0.65097487,0.44926772,0.055390775,0.36682522,-0.11196932,-0.20749709,-0.21015534,1.065013,-0.12845773,0.19600055,-0.08253877,-0.40778765,-0.67672795,0.24197839,-0.058855426,-0.47878575,0.727198,0.51042354,0.15080898,-0.21576007,0.24655677,-0.32801774,0.50823474,-0.6308931,0.69598776,-0.55438685,0.5153213,0.25390148,-0.43042272,-0.21455806,-0.54087645,-0.4393036,0.7375134,0.49647963,0.3456426,-0.657907,0.4775295,-0.50616205,0.589533,0.29823667,-0.43172956,0.13851725,-0.7233699,0.3105543,0.56391984,-0.7398627,0.41998804,-0.091082916,0.8268287,0.35411602,0.578599,0.068836525,-0.5882036,-0.4243192,-0.46325085,0.70645535,0.80477595,-0.23494488,-0.7360227,0.5230561,-0.2137639,-0.14353701,0.48520532,-0.82998323,0.5669257,-0.76915526,-0.51360095,0.10613517,-0.55173665,0.57932323,-0.13165651,-0.11331946,0.06454938,-0.45432395,-0.7660972,0.41946524,-0.39168018,-0.75415343,0.2865546,-0.36062133,0.257272,-0.14893319,-0.28254297,0.6478855,-0.25046244,0.12077274,-0.5039732,0.25275204,-0.5480981,-0.48427013,-0.54539114,0.37851962,-0.12000606,-0.50865394,0.8162256,-0.35760936,1.1116158,-0.55009425,-0.3252527,-0.46009853,0.5562145,0.5838263,1.104223,0.38774738,0.9615395,-0.3978369,0.56093514,0.030618683,0.6820581,0.18138762,-0.4202181,-0.580296,-0.11749448,0.0015935281,-0.46699506,0.1008853,0.39413884,0.109262064,-0.38777196,0.4675572,-0.23597196,-0.4450234,-0.23528807,0.21035738,-0.28380927,0.6760491,-0.38429543,-0.6490215,-0.33836356,-0.7172388,-0.5235243,0.42798004,-0.6393766,-0.32222295,0.20663086,-0.1735536,-0.20868449,-0.09395784,0.18997948,0.69499385,-0.51725227,0.16283546,-1.1254473,0.3347742,-0.21288565,-0.15352398,-1.0891135,0.07094756,0.76371,0.6459673,-0.51105094,0.24966486,-0.04579773,-0.82729703,0.4698895,-0.17892182,-0.43020725,-0.8913975,-0.3213256,-0.0072964667,0.7339251,-0.55641955,-0.15584281,-0.28367123,0.10314751,-0.12012404,0.17436719,-0.59489226,0.06489592,0.27296185,-0.30879298,-0.34569106,0.98405755,-0.92192763,-0.5370359,0.44496432,0.75267875,0.12622024,-0.19636156,0.33241642,0.5917335,0.52903515,0.91913515,-0.29343584,-0.6400195,0.8350127,-0.40484974,-0.7969569,-4.1961803,0.53712267,0.297835,0.22768877,-0.5414888,0.47674298,0.40829384,-0.18710922,0.6780634,-0.035020653,-0.6446269,0.16421138,-0.6974555,-0.52902824,0.13794634,0.56489086,0.23715466,-0.55431944,-0.3433347,0.79286206,-0.6746068,0.40326798,-0.47711936,-0.14515975,-0.39153436,0.5139024,0.895267,-0.5240629,0.26621813,0.69129425,0.4516466,-0.039737273,0.62363887,-0.5794996,0.47515175,-0.42575392,-0.82099676,-0.46909,-0.15960692,-0.5914831,0.6013094,0.61888444,-0.37771174,0.55788535,-0.865612,0.080603555,0.50594234,-0.17426784,0.054050725,0.2443495,0.82803875,-0.13803317,-0.80236405,0.17096414,-0.5770246,0.22400014,0.022399452,0.14920177,0.16362002,0.18212049,0.67150575,-0.32205686,-0.2395602,-0.43472812,-0.4282027,0.11922426,-0.3605834,-0.10823104,0.40866673,0.53236246,-0.004731174,0.4078335,0.28802794,-0.50442857,0.3909882,0.72204214,0.7905928,-0.27609718,0.9996166,0.30457583,0.038299832,0.5729053,-0.2496517,0.24947175,-0.6238441,-0.30781826,0.10606018,-0.5094863,-0.7206793,-0.20421919,0.6263206,-0.60451466,-0.21511605,0.47665566,-0.44121388,-0.21327716,0.3112172,0.32039693,0.13919692,-0.024969434,0.48265645,-0.49798456,0.6593575,0.36457753,1.0998261,0.009846651,0.85141695,-1.0173596,0.28964075,0.24092333,1.002741,-0.69876,0.14718308,0.68251896,0.9762236,0.6078636,0.27284023,-0.3819446,0.6637927,-0.3322341,-0.5984404,0.47995585,-0.17812723,-0.32743558,-0.57313097,-0.3080193,0.5790563,0.44411555,-0.049730275,-0.3459213,0.6658868,-0.19314183,0.35115832,-0.4746795,0.9344904,0.75442666,0.4481269,-0.30133313,-0.09434842,0.41227642,-0.5097147,-0.46202075,-0.385536,0.6265544,0.1637108,-0.26738784,0.3567775,-0.6213246,-0.41958132,0.025506241,0.43784901,0.32294735,-0.8989757,-0.589876,-0.38486415,0.40018922,0.13314,0.6674777,0.37975073,0.2947059,0.6415501,-0.6238922,-0.6297867,-0.09087027,-0.020645022,-0.5026186,-0.09550259,0.8889775,0.2457563,-0.29290923,-0.73767626,0.21605049,0.6247897,0.73191774,0.15212673,-0.50850874,-0.2318871,0.34953645,-0.65614563,0.8743733,-0.24672002,-0.5339865,-0.38476095,-0.4308226,0.47636637,0.39091682,-0.24868439,0.025817325,0.08825366,-0.3537978,-0.48996645,-0.31222862,-0.56742746,-0.34748775,-0.47793812,0.123606846,-0.55536336,-0.37815765,0.36283123,0.729402,-0.07617049,0.0021680587,0.78354216,-0.46972638,0.6132105,0.534184,-0.29034618,-0.3541005,-0.7851361,0.5177531,-0.17642404
-BlitzN9ne,0.5,0.15,0.5,0.3,0.85,0.77163565,-0.20827383,1.1510108,-0.5257331,-0.28054786,0.4665179,0.013211105,-0.28293094,0.500761,-0.9261675,-0.3841248,0.7612759,-0.59217507,0.32678726,-0.4553231,0.72449476,-0.39817607,0.39002496,0.46787602,0.2951097,0.44606957,-0.42208147,-0.27507952,-0.090179525,0.16763437,-0.43498752,0.05386518,-0.16196181,-0.30245185,-0.5890164,-0.41123617,-0.3750824,-0.6114119,0.5159429,0.064131565,-0.1889003,0.77782553,0.46517676,0.15732624,0.07865134,-0.27874947,-0.12434861,0.7092725,0.5535279,0.6085197,-0.68892664,-0.94261116,0.67512596,-0.866639,-0.044579033,-0.37270752,-0.7058705,-0.7466619,-0.035522226,-0.11930127,-0.43955314,0.16342355,0.1007072,-0.7526108,0.16115224,0.64871883,-0.62443393,0.5909718,-0.50177205,-0.12589099,0.5071548,0.5761294,-0.46216828,0.38492167,0.4228373,-0.66239494,-0.15870419,0.107377104,0.6313473,-0.024891458,-0.6563967,-0.45717576,-0.18444815,-0.51114756,-0.56293106,-0.287846,0.48437598,0.40625408,0.5967623,-0.5919361,-0.18408184,-0.008393088,0.28938293,0.59265244,0.37449628,0.7278677,-0.28466955,0.4081871,0.030024841,0.71203196,-0.1262655,-0.35855445,-0.3415672,-0.16184717,0.77946556,0.7093924,0.26499978,0.29081008,0.5750061,-0.06873253,-0.87043893,-0.41739675,-0.5203471,0.4392249,-0.038198203,0.6681799,-0.5206183,0.075811505,0.40615875,-0.047720317,0.03669208,0.6336686,0.42929345,0.7820029,0.028650146,0.15477352,0.35903144,0.7203323,0.21920031,-0.26286715,-0.79625136,-0.2701795,0.061764628,-0.106924824,-0.6533508,-0.68842566,-0.7018121,0.643066,-0.31656194,0.020282846,0.5104731,0.28714436,0.24990813,-1.4717051,-0.8352208,0.48739243,-0.64151186,0.930854,0.27741343,0.65909874,0.049332783,-0.17763816,0.2148367,0.29480115,-0.0738475,-0.71568424,-0.019217562,0.12350942,-0.1771989,-0.5150887,-0.15029909,0.5718188,-0.2040245,0.7078621,-0.5948196,-0.5121762,-0.94758457,-1.4061949,0.8301681,0.4830811,0.003177464,0.11346888,0.029547958,0.13299347,0.7183675,-0.23854762,-0.4744846,-0.82398236,-0.059051696,0.4791499,-0.3575961,-0.63853425,-0.40667307,-0.54640144,0.65755284,-0.5366498,0.039992314,0.50349396,-0.509132,0.38755226,-0.016276624,0.5588168,0.19639048,0.74815094,-0.19916162,-0.6136888,-0.51634675,0.07765324,-0.41223064,-0.27510604,0.36863682,0.15600085,-0.4019682,0.90978646,0.088172436,0.16344471,0.0479538,-0.58058226,0.6964102,0.51901907,-0.17207545,-0.58951426,-0.03633391,-0.24390078,-0.38460836,0.0004107148,0.5462752,-0.28612986,0.36293986,0.33787486,-0.65163815,-0.36269677,-1.0792375,0.6112084,0.20858464,0.45275155,0.65844834,0.14371312,-0.41777998,0.18144159,0.05488857,0.2192904,-0.70558196,-0.22167306,-0.31599838,0.060040113,0.76637113,0.3523627,0.061203673,-0.2743624,0.0089567425,0.2622131,0.13543049,-0.8565164,-0.24152435,-0.39350352,-0.3755459,0.43408436,-0.07333009,-0.14955126,-0.44027478,-0.7568993,0.83749914,-0.35181665,0.6127577,-0.3189644,0.3864235,-0.90505844,-0.74726504,-0.31601575,-0.25427482,0.18929309,-0.6240785,0.06119014,0.09187504,0.64488775,-1.1048013,0.7123503,0.22464302,0.5632955,-0.6528764,0.031354863,0.33866242,-0.7613625,-0.1277576,-0.47426334,-0.44714126,-0.38648728,-0.03646582,0.2829694,0.5208101,0.7345779,0.53943396,0.43509728,-0.9880203,-0.68824273,0.6928137,0.42378315,0.45484987,-0.63234615,-0.110974185,0.666775,0.9246454,-0.30561146,0.25730348,0.57108146,0.24894117,-0.030676045,-0.120836765,0.1820345,-0.7187013,-0.58780825,0.09789756,0.16635092,-0.64120805,0.9971717,0.50989354,-0.66493523,0.21106814,-0.5367274,0.5310568,0.33531213,0.41375923,0.08996911,-0.41314617,0.46697658,0.5652387,-0.37944692,0.30105558,-0.6798933,-0.7923169,-0.35463268,0.18414004,0.06472855,-0.27569383,-0.23842774,0.6718067,-0.13020651,0.35575643,-0.15359467,-0.03442423,-0.8731572,-0.5861381,-0.3113603,0.054982863,-0.3837172,-0.36822295,0.027938679,0.5090878,0.021407727,-0.6721455,0.38327667,-0.4838161,-0.5669709,-0.029281972,-0.33619976,-0.5154297,-0.037438866,0.58041775,-0.11342825,-0.4761365,0.29418552,-0.42168698,0.4872037,0.45956814,0.2799651,0.3008002,0.44622084,-0.2732977,0.24064286,0.31559643,0.49709994,0.24369454,0.5789918,-0.3384987,0.10176661,-0.3972347,-0.50703883,-0.31730407,0.06962109,-0.37116703,-0.6331795,-0.08638008,-0.50466925,0.70118666,0.46499154,0.10452286,0.36924922,-0.060715873,-0.089084126,-0.2770499,1.0191733,-0.14886874,0.20084435,-0.18096058,-0.5271042,-0.65676457,0.22144343,-0.034746055,-0.3213205,0.75269294,0.44863027,0.10411359,-0.1500444,0.3359622,-0.31749016,0.3993857,-0.623611,0.59886885,-0.51851475,0.4683483,0.17790525,-0.35596296,-0.08619742,-0.5799415,-0.44400293,0.63169515,0.36455867,0.33258575,-0.7299788,0.42512655,-0.46998152,0.49079207,0.24709935,-0.44590652,0.18517451,-0.7804046,0.24077828,0.73362905,-0.71140087,0.36330116,0.043288782,0.82994026,0.35609043,0.71864825,0.07353808,-0.5611078,-0.35440058,-0.45122874,0.600752,0.84282976,-0.22291858,-0.7071623,0.4528406,-0.1655177,-0.21342586,0.40680057,-0.8846598,0.4251531,-0.73280686,-0.421039,0.079698056,-0.4637438,0.5773499,0.03451673,-0.266695,0.0069045397,-0.39272985,-0.856856,0.32619599,-0.43270215,-0.67633796,0.37778527,-0.37542453,0.16457723,-0.20365888,-0.18934742,0.7527231,-0.20690408,0.05185344,-0.45408863,0.33747733,-0.5344906,-0.4622571,-0.5048076,0.36402145,0.01310033,-0.53582263,0.82752216,-0.15297164,1.0967377,-0.53206205,-0.25796303,-0.44978106,0.47728673,0.6218949,1.0260012,0.5288671,1.0220664,-0.4039183,0.55180067,0.12648335,0.67113703,0.15234736,-0.34042627,-0.5524947,-0.020403288,-0.0031071377,-0.38391766,0.21574236,0.3653842,0.11524335,-0.4077409,0.41441473,-0.14696474,-0.33191597,-0.13983954,0.04819852,-0.26553348,0.61649877,-0.23435946,-0.54296446,-0.30845618,-0.62652075,-0.5357241,0.31298506,-0.63005215,-0.2727022,0.2710459,-0.21806735,-0.15681395,-0.13305974,0.07695597,0.5746804,-0.6887893,0.2623888,-1.2602789,0.3355219,-0.19539198,-0.09560385,-1.0523789,0.07854025,0.7523045,0.639423,-0.4445472,0.18011305,-0.087832436,-0.8484003,0.3732811,-0.18304086,-0.40808785,-0.96556556,-0.39428967,-0.042258263,0.69552237,-0.59022,-0.20208503,-0.26883665,0.16914602,-0.010773111,0.1399866,-0.47031862,0.007171245,0.39710203,-0.17575432,-0.21419214,1.1071646,-0.84746104,-0.43191877,0.38773447,0.81294304,0.04564443,-0.08638746,0.34458295,0.5527271,0.46894997,0.90382534,-0.36292672,-0.5824792,0.8268581,-0.33302432,-0.7301593,-4.264714,0.40466273,0.3164784,0.25627688,-0.53608555,0.42567506,0.4908567,-0.19622584,0.68969005,0.05262749,-0.7205759,0.17558789,-0.7600429,-0.49529287,0.17242186,0.47940707,0.17007703,-0.52980465,-0.27664125,0.7732325,-0.58853173,0.4030422,-0.3850276,-0.096648365,-0.39793533,0.47578797,0.86037475,-0.4726367,0.25510904,0.66879,0.39436013,-0.065279946,0.63340753,-0.6029157,0.4481017,-0.47557747,-0.7353508,-0.4428301,-0.08169727,-0.58389586,0.5668036,0.5424035,-0.21292408,0.5210838,-0.84399176,0.15842347,0.35595152,-0.13004293,0.051464636,0.22130425,0.97969776,-0.06559155,-0.7279342,0.104837984,-0.51318485,0.122759216,0.0060718544,0.1979791,0.08028985,0.048541866,0.57379663,-0.25777894,-0.07085788,-0.38482684,-0.41121107,0.12725364,-0.37274805,-0.22912632,0.35492364,0.5394171,-0.033397943,0.35851482,0.26127377,-0.45445254,0.38186234,0.72897905,0.60750616,-0.2751191,0.92557526,0.22806905,-0.1405679,0.5260793,-0.10946727,0.23436847,-0.54385686,-0.28117082,0.019797854,-0.42158908,-0.7224954,-0.19339694,0.51030076,-0.59987605,-0.20426433,0.4482072,-0.4435782,-0.13596293,0.26486975,0.23381501,0.093392216,-0.019203985,0.3981108,-0.44356924,0.51410025,0.28307942,1.1128967,-0.062054407,0.8489999,-0.9252785,0.22731292,0.19714342,0.98634243,-0.71550786,0.1497828,0.5812302,0.95203936,0.7320417,0.22406451,-0.34988573,0.6536788,-0.30639982,-0.5117016,0.5607069,-0.12875408,-0.25712982,-0.4988921,-0.36001176,0.5990168,0.3625775,-0.057111274,-0.27343315,0.7406679,-0.24609335,0.17969602,-0.37706047,1.0403944,0.6863108,0.44184017,-0.2986822,-0.13363524,0.42482486,-0.45215005,-0.4402399,-0.36830992,0.6359161,0.28354385,-0.25593534,0.2700301,-0.62936676,-0.48600015,0.101050474,0.3644649,0.2695281,-0.92464834,-0.573493,-0.23235774,0.3401931,0.1569489,0.63610023,0.3445889,0.2899132,0.53499347,-0.6011975,-0.6217854,-0.10978905,0.020000307,-0.42710584,-0.17271867,0.84245074,0.21765581,-0.15941207,-0.6953764,0.0990214,0.54940623,0.8248237,0.11855568,-0.46772078,-0.1785733,0.2834716,-0.63617086,0.85359424,-0.22225825,-0.44099453,-0.29842156,-0.3800865,0.41103435,0.32620898,-0.3310644,0.03909192,0.05063814,-0.21768966,-0.42768332,-0.3663689,-0.6540063,-0.29029927,-0.52821684,0.14381352,-0.53726536,-0.39054552,0.26745296,0.7766912,-0.04503531,-0.0032090393,0.70152706,-0.48338854,0.5130437,0.493706,-0.16115144,-0.31268463,-0.81066155,0.5255184,-0.16453624
-CrestiaBell,0.5,0.5,0.85,0.5,0.85,0.7495765,-0.26698962,1.102002,-0.5887429,-0.264376,0.54723006,0.03612593,-0.32764432,0.5666138,-0.83780473,-0.38859886,0.74560386,-0.53898895,0.23829861,-0.49032336,0.7175729,-0.3979826,0.3381101,0.53794515,0.40933064,0.44513488,-0.49982306,-0.33234265,-0.06755645,0.15407868,-0.46571976,-0.054804962,-0.3078095,-0.25371453,-0.681645,-0.5133935,-0.3955182,-0.6528034,0.41580257,0.10666354,-0.2717389,0.8537124,0.46025985,0.31059286,0.036153097,-0.2758909,-0.19025086,0.79213595,0.60373455,0.6522496,-0.68082255,-0.850945,0.8075998,-0.8988367,-0.13919304,-0.37478966,-0.7677113,-0.82770634,-0.027737003,-0.16278808,-0.4718682,0.30348533,0.053628687,-0.76154584,0.053318776,0.71402216,-0.6315683,0.55131954,-0.5029412,-0.022599883,0.52553976,0.51296604,-0.5292818,0.38187695,0.3853572,-0.7382078,-0.13397487,-0.010990912,0.6514745,-0.12396587,-0.62582487,-0.60208845,-0.21495178,-0.5400914,-0.6575114,-0.39193,0.51803106,0.44530255,0.65594655,-0.564197,-0.20528981,-0.016568845,0.39168411,0.62516904,0.4190866,0.781262,-0.37342927,0.39981282,0.010788337,0.71803427,-0.123597875,-0.35760835,-0.4203607,-0.2595543,0.8272894,0.7430107,0.30463699,0.3396777,0.56635094,-0.089164875,-0.8388287,-0.41485298,-0.5325206,0.48785838,-0.17082325,0.74830407,-0.60217685,0.06939523,0.35515156,-0.07727882,0.006731978,0.67047346,0.51902646,0.78008235,0.16283527,0.086855404,0.35846415,0.7607092,0.18647572,-0.35601273,-0.7625808,-0.23705353,0.10007514,-0.2111851,-0.6876507,-0.7669153,-0.76371044,0.55549455,-0.38418904,0.07937795,0.5179828,0.36565027,0.15326641,-1.2382414,-0.8095735,0.5862849,-0.599458,0.9137861,0.29352748,0.666115,-0.093515165,-0.09334508,0.31306997,0.3019656,-0.06372408,-0.7425221,-0.03254738,0.15871525,-0.16394933,-0.56582224,-0.19778126,0.6055319,-0.16315682,0.7078419,-0.6292638,-0.4515486,-0.9599208,-1.3543342,0.8245542,0.5784458,0.05195155,0.13752125,-0.03510041,0.24854888,0.67452496,-0.17757072,-0.50805616,-0.80280584,-0.12194399,0.5244779,-0.3730802,-0.7014383,-0.50398713,-0.57600296,0.69616747,-0.6283109,0.12894638,0.5824627,-0.5338245,0.44799,-0.03336375,0.5048462,0.1784906,0.621759,-0.3120936,-0.7210338,-0.54993165,0.13157651,-0.48857978,-0.3221004,0.4662114,0.23607743,-0.4995562,0.927904,0.0027885796,0.28742498,0.136357,-0.46116158,0.7542032,0.52134854,-0.2108015,-0.67352647,-0.096804745,-0.14005844,-0.3261299,0.034704424,0.5969474,-0.31898224,0.42993543,0.3659548,-0.70500267,-0.36743647,-1.0526685,0.709802,0.20715274,0.57140386,0.7330505,0.18315765,-0.45866662,0.21563746,-0.058172375,0.1989737,-0.6529901,-0.24493067,-0.37599927,0.034763753,0.7870637,0.3512445,0.17408061,-0.21225373,-0.03005255,0.28853112,0.13372204,-0.80991083,-0.23197663,-0.3347513,-0.31373292,0.4320809,0.023878109,-0.114701115,-0.55036545,-0.7577383,0.9106727,-0.40658358,0.5858636,-0.41591978,0.3204738,-0.8592304,-0.77478147,-0.42963085,-0.3346909,0.24266776,-0.72475004,0.16446593,0.13640709,0.7053608,-1.0227056,0.7468871,0.3610584,0.56759953,-0.63496023,-0.0092221,0.35738948,-0.779541,-0.17138831,-0.5292895,-0.5082489,-0.43644825,-0.0952497,0.32143983,0.42583343,0.79425883,0.6179163,0.5351394,-0.9230269,-0.70219564,0.7793456,0.41679752,0.4229181,-0.5996122,-0.12165119,0.7211258,0.8938919,-0.37595984,0.13194203,0.5155316,0.36441335,0.08830132,-0.18991767,0.143715,-0.69554,-0.59011596,0.09426211,0.2125315,-0.69890666,0.967066,0.4886058,-0.7202405,0.27912438,-0.3735268,0.53182703,0.28262863,0.43610793,0.13501428,-0.49880385,0.49803883,0.5759526,-0.4344853,0.46597388,-0.57608885,-0.7717855,-0.36648113,0.08966235,0.13220406,-0.2727376,-0.29302427,0.652485,-0.15613165,0.4484428,-0.19190116,-0.015537562,-0.8710331,-0.6229655,-0.3376989,0.15177846,-0.31397015,-0.4332826,0.06489199,0.6459754,0.1144795,-0.74534357,0.5626235,-0.5210249,-0.6219891,-0.05668459,-0.3414463,-0.49841323,-0.12906766,0.57855684,-0.21804272,-0.53155315,0.29012093,-0.40635124,0.606063,0.45151824,0.2932536,0.3006337,0.5330967,-0.19021644,0.20973215,0.3994633,0.60682315,0.110879384,0.67274517,-0.39187238,0.04072267,-0.33842897,-0.57865804,-0.42787045,-0.005122275,-0.35103598,-0.7184936,-0.14933935,-0.50047123,0.6889799,0.48377478,0.06739564,0.4032546,-0.10090544,-0.19534752,-0.23786101,1.0829204,-0.14185569,0.21939018,-0.07849082,-0.4624525,-0.6947514,0.27853316,-0.05040073,-0.47228956,0.74340963,0.5465059,0.14915742,-0.20186196,0.2657182,-0.33744755,0.4756879,-0.63764447,0.6496107,-0.55659056,0.56367433,0.22517432,-0.3833527,-0.20638703,-0.59081936,-0.46067515,0.7201704,0.50783455,0.36094838,-0.64067125,0.502228,-0.46294257,0.5949079,0.25732502,-0.4512805,0.21161276,-0.7378086,0.2549506,0.5684804,-0.7036297,0.4217415,-0.07161233,0.846538,0.3857359,0.626245,0.055195536,-0.5896593,-0.3983794,-0.49492097,0.6865754,0.8015248,-0.24383861,-0.7721096,0.52235746,-0.21839194,-0.14104158,0.45994583,-0.8160275,0.5424691,-0.73102415,-0.49754423,0.087741695,-0.5836497,0.61191916,-0.10487351,-0.11602604,0.08572913,-0.4752361,-0.765642,0.42317787,-0.36545858,-0.7586499,0.32658866,-0.37508798,0.24993677,-0.2094605,-0.28353852,0.6992512,-0.222369,0.16992998,-0.49725568,0.23036516,-0.58408815,-0.44877928,-0.57519853,0.38511702,-0.10076628,-0.50378567,0.8390425,-0.35286775,1.1317666,-0.5392443,-0.32986975,-0.5292133,0.55976444,0.5987938,1.0981909,0.4432381,0.98656595,-0.40417755,0.6113405,0.070473455,0.7209667,0.17479657,-0.40947628,-0.57571375,-0.0792962,-0.0029429772,-0.46971917,0.16982162,0.35226834,0.06593117,-0.40555575,0.46330982,-0.21985847,-0.4027157,-0.2378954,0.19220774,-0.28234768,0.6750115,-0.3712179,-0.6079255,-0.35144326,-0.68968797,-0.5237741,0.425216,-0.6641936,-0.33927104,0.23418729,-0.17603615,-0.26960334,-0.084562816,0.17542094,0.6829576,-0.55454224,0.18967126,-1.1079447,0.37463963,-0.20482439,-0.14257345,-1.0639075,0.12998402,0.7603643,0.64960647,-0.4898803,0.24941751,-0.079703905,-0.84429777,0.49788314,-0.2066758,-0.44000635,-0.88334066,-0.3249698,0.0070795803,0.7196935,-0.5826142,-0.13310501,-0.28417146,0.15212573,-0.09274685,0.18905078,-0.554743,0.0578324,0.2733582,-0.24507213,-0.34807935,0.9636794,-0.87914485,-0.5194719,0.42921287,0.7649272,0.14378,-0.18633701,0.31990147,0.5396738,0.4893649,0.9145121,-0.31305212,-0.65069115,0.85838157,-0.41734806,-0.8176318,-4.184097,0.50288963,0.30973637,0.22378033,-0.576756,0.48299196,0.47588775,-0.10594161,0.71459246,-0.05297091,-0.6419949,0.1539061,-0.7412993,-0.5383316,0.1324801,0.6016618,0.21498877,-0.55248094,-0.34367102,0.8473098,-0.64415514,0.3993312,-0.44199076,-0.10299888,-0.36325172,0.51497096,0.9065855,-0.51267785,0.25463828,0.72640395,0.4342656,-0.036843885,0.63990253,-0.63433963,0.47232968,-0.5029247,-0.78083897,-0.4776907,-0.15415558,-0.5504008,0.60427827,0.6185112,-0.3200767,0.50630444,-0.88144296,0.10820254,0.48789877,-0.14974912,0.04841758,0.213826,0.8754586,-0.13043496,-0.84070456,0.17764327,-0.6096157,0.18786491,0.063512094,0.13901292,0.15204506,0.17338972,0.6207545,-0.33242327,-0.18919887,-0.41226146,-0.40579394,0.12336967,-0.3523995,-0.1166622,0.36741096,0.5253281,0.0043365187,0.42056325,0.293383,-0.5113196,0.39945343,0.7552741,0.7769937,-0.29566061,0.9777715,0.2900508,0.017599696,0.5468551,-0.25638157,0.26697603,-0.6253153,-0.2834559,0.10762159,-0.492412,-0.75881493,-0.25961125,0.59783584,-0.5561967,-0.21255445,0.48033768,-0.46401447,-0.19018292,0.28737938,0.3142771,0.099238254,0.040192164,0.5169087,-0.46764404,0.63450557,0.39137116,1.0604792,-0.05327485,0.8593273,-0.90474397,0.27933398,0.22748418,0.9917729,-0.701724,0.13987574,0.6860025,0.9485047,0.5911457,0.27105162,-0.3430275,0.688097,-0.36049575,-0.62155193,0.48504454,-0.2229349,-0.288174,-0.57926357,-0.3560081,0.61744773,0.44408217,-0.09581589,-0.3428682,0.6958991,-0.25103742,0.3154911,-0.4253989,0.9333861,0.69871175,0.5199077,-0.3170661,-0.14652748,0.43554163,-0.48071563,-0.46267295,-0.38446885,0.6343014,0.15088391,-0.24815097,0.34715858,-0.6707091,-0.41641212,0.050546102,0.4453489,0.31473854,-0.9380959,-0.60915446,-0.34537268,0.421049,0.09041349,0.69981915,0.37982196,0.2781666,0.63414264,-0.601512,-0.63092774,-0.08417113,-0.043136526,-0.4879692,-0.098177016,0.8535668,0.21052349,-0.24313334,-0.78479695,0.21861245,0.6266956,0.71848744,0.18829599,-0.47768632,-0.23501746,0.33518225,-0.6515522,0.84753597,-0.22328529,-0.51916516,-0.35689867,-0.44011602,0.46969074,0.36708647,-0.23736046,0.03990562,0.063959725,-0.3860612,-0.5281187,-0.35890815,-0.57792974,-0.33798906,-0.5376729,0.15697047,-0.57443017,-0.44589087,0.34841242,0.7555823,-0.078002915,0.026314424,0.77846754,-0.49398556,0.6179058,0.509624,-0.29981837,-0.3761994,-0.8358189,0.5366894,-0.17071421
-dyad-,0.6,0.45,0.1,0.47,0.67,0.7464075,-0.30553117,1.1204021,-0.6079319,-0.28727746,0.5635318,0.04121081,-0.31886008,0.6351553,-0.7271045,-0.37012783,0.7453227,-0.42870116,0.14760287,-0.4917252,0.7594172,-0.37074572,0.3072763,0.6232606,0.5210267,0.36201775,-0.5374326,-0.40556532,0.036143214,0.16102144,-0.49024564,-0.10238119,-0.40597123,-0.11363762,-0.7526194,-0.61638016,-0.36670145,-0.76988906,0.29195178,0.1467518,-0.33844087,0.921848,0.48224816,0.47002828,-0.035921674,-0.20652282,-0.2603061,0.881144,0.6233007,0.7159719,-0.68315804,-0.787943,0.999619,-0.9711275,-0.2588917,-0.44109997,-0.80579096,-0.9408517,-0.049967162,-0.21717139,-0.5036844,0.47170538,0.053592812,-0.7149257,-0.08851846,0.83021307,-0.65960056,0.434681,-0.47502843,0.116246596,0.5839601,0.4043002,-0.5658574,0.43662488,0.38969406,-0.8532745,-0.078800246,-0.15041062,0.69997656,-0.22844158,-0.6129507,-0.73597485,-0.2869373,-0.580796,-0.77088886,-0.50713134,0.56171477,0.54796356,0.7180291,-0.54073626,-0.197367,-0.04713911,0.5314807,0.6755611,0.5069793,0.85179704,-0.4681693,0.38911536,-0.05360149,0.72837865,-0.21800597,-0.3904643,-0.56026936,-0.29775807,0.88619447,0.7456106,0.38911015,0.41195038,0.5707565,-0.113724075,-0.8632872,-0.3641488,-0.5932179,0.49718788,-0.36917537,0.9152929,-0.7002744,0.0032992503,0.40149778,-0.1077633,0.012474004,0.7416215,0.6066992,0.85564154,0.30416474,0.06672617,0.3343317,0.8015811,0.14359286,-0.42368507,-0.67227894,-0.25669408,0.12662432,-0.38115814,-0.7334191,-0.75988936,-0.7890826,0.5039138,-0.4209369,0.10567755,0.5161543,0.5045496,0.012787665,-0.9638099,-0.8311818,0.6976638,-0.6441126,0.9209849,0.31461197,0.6237193,-0.16291249,0.010967421,0.46284142,0.29381496,-0.116697915,-0.8692732,-0.053030808,0.2056504,-0.19899617,-0.63770056,-0.2630872,0.63562185,-0.16194326,0.67288786,-0.6763921,-0.42487887,-1.0052195,-1.3160913,0.92631626,0.7177513,0.10972616,0.16486171,-0.0929748,0.38114426,0.6074077,-0.051114958,-0.4861063,-0.7940955,-0.20647748,0.616746,-0.41482496,-0.80783904,-0.6353473,-0.65384996,0.7482739,-0.6626482,0.17622581,0.6870214,-0.58109254,0.57922465,-0.0764279,0.448237,0.21189432,0.57335484,-0.43195292,-0.81174654,-0.63174105,0.22872771,-0.57413036,-0.3637803,0.5814452,0.3464669,-0.5512868,0.9938133,-0.06510385,0.48615018,0.31267995,-0.37660912,0.7971832,0.527764,-0.23307686,-0.7710207,-0.1671046,-0.07096889,-0.32659063,0.09161237,0.608121,-0.38055295,0.49916756,0.40315938,-0.7715065,-0.33648694,-1.0484582,0.77206075,0.24090768,0.70432884,0.80131865,0.27788833,-0.4433271,0.24399404,-0.14423706,0.22506513,-0.5986371,-0.28339562,-0.43346354,-0.050973047,0.76759374,0.39020982,0.26089206,-0.12162881,-0.08975416,0.34232378,0.19086635,-0.79944587,-0.24874389,-0.21182272,-0.30370578,0.4446793,0.09273239,-0.11560549,-0.69117326,-0.78700525,0.9396248,-0.53441113,0.52816546,-0.52581936,0.2800428,-0.8131218,-0.8319283,-0.50849473,-0.43440217,0.30163354,-0.77780473,0.24901104,0.26865888,0.72357255,-0.94861186,0.80201054,0.56569844,0.6009652,-0.6046409,-0.05053826,0.4157428,-0.7809379,-0.1873769,-0.53943366,-0.48861787,-0.47389865,-0.26736552,0.38224232,0.35036084,0.84506434,0.67789805,0.6354257,-0.9623555,-0.73162436,0.81992424,0.41766205,0.45455623,-0.6038318,-0.20912766,0.76160383,0.8665547,-0.43351516,-0.005765122,0.49005592,0.54313695,0.24207808,-0.2951038,0.13859075,-0.713605,-0.5996819,0.13113207,0.18030661,-0.841926,0.9583537,0.43699712,-0.7755588,0.37223372,-0.19143024,0.56101084,0.19216292,0.52808,0.21497597,-0.53906,0.5280405,0.5839996,-0.46443304,0.6124827,-0.4925761,-0.6977625,-0.35353494,-0.0682064,0.14314167,-0.23107168,-0.35831434,0.55590546,-0.2107651,0.5385358,-0.27555373,-0.013402608,-0.89115304,-0.66666037,-0.39692065,0.23179577,-0.26258555,-0.55415803,0.174006,0.77074444,0.20958008,-0.71232575,0.70470816,-0.55299366,-0.63997793,-0.09265796,-0.4093623,-0.4884123,-0.28124064,0.62183964,-0.348122,-0.64167297,0.2689836,-0.43097755,0.7276358,0.3984972,0.19692834,0.2403984,0.6818748,-0.123661794,0.17958787,0.44233474,0.7094575,0.051160857,0.8370397,-0.4866859,-0.019853635,-0.34360015,-0.6609078,-0.52122474,-0.053345285,-0.30198926,-0.7511637,-0.2058146,-0.5166588,0.6871699,0.4595044,-0.045595597,0.4359538,-0.16261163,-0.3440265,-0.21713136,1.1324333,-0.13482179,0.23752177,0.082952626,-0.36425868,-0.74247384,0.32636937,-0.121982664,-0.6262838,0.7353057,0.5673122,0.15093705,-0.28368875,0.22228919,-0.39425465,0.6095425,-0.63190156,0.7468641,-0.59089464,0.5874259,0.32838473,-0.4574314,-0.33068186,-0.55494183,-0.46217877,0.8126325,0.65011656,0.40132076,-0.6046532,0.5867648,-0.55054253,0.7047191,0.34594584,-0.45402423,0.15946816,-0.6926147,0.36499533,0.4095154,-0.7770623,0.4822975,-0.15703589,0.82378453,0.3982214,0.54783463,-0.013451715,-0.6397988,-0.5363081,-0.5088948,0.80011994,0.76019835,-0.22707759,-0.7958214,0.59919536,-0.23121217,-0.06691065,0.57653314,-0.7462814,0.6907667,-0.73373103,-0.575252,0.16095217,-0.6626278,0.5957316,-0.27940935,0.081441775,0.16980922,-0.5631518,-0.7201618,0.52296174,-0.33384597,-0.84205544,0.18002725,-0.37407663,0.416131,-0.15168647,-0.3599176,0.5755021,-0.31347582,0.24708316,-0.54583716,0.12204435,-0.54956084,-0.49134132,-0.57352054,0.41942352,-0.2509041,-0.5365719,0.86407584,-0.5770484,1.160189,-0.5583253,-0.37177634,-0.52700377,0.5831202,0.5752689,1.2339177,0.30947465,1.0194435,-0.4208953,0.6359857,-0.05570454,0.785082,0.25779793,-0.5553603,-0.6176679,-0.1580949,-0.024578236,-0.5799393,0.08772589,0.34258908,0.045581013,-0.37731433,0.55435526,-0.34627846,-0.49999917,-0.38255122,0.3332482,-0.37767363,0.70520794,-0.56581163,-0.7100851,-0.40426478,-0.8595864,-0.5223842,0.537114,-0.6916986,-0.40019298,0.11066081,-0.13857388,-0.34934187,-0.04805257,0.30401766,0.7994902,-0.37579557,0.045118935,-0.9959133,0.35105535,-0.18647012,-0.20293346,-1.091898,0.05203539,0.7841147,0.68210435,-0.532277,0.3207671,-0.086179525,-0.8336337,0.5617655,-0.25481233,-0.4430003,-0.7857913,-0.26422277,0.033145487,0.6988996,-0.54774696,-0.066967666,-0.3199835,0.1306253,-0.16472349,0.256489,-0.68270135,0.09469295,0.09294679,-0.39680123,-0.4839114,0.7877693,-0.8950153,-0.645128,0.47410226,0.6784918,0.22464545,-0.26820478,0.29306135,0.52631336,0.54315007,0.9303039,-0.25702205,-0.69036245,0.8429201,-0.53234226,-0.8565319,-3.9362261,0.62461686,0.27182576,0.2483128,-0.55227554,0.59141093,0.3153921,-0.08685311,0.68432236,-0.18434879,-0.60474694,0.16263588,-0.6724832,-0.5273381,0.0912932,0.75224864,0.2804796,-0.62512195,-0.40975124,0.8585055,-0.65771896,0.41148144,-0.57849437,-0.12930883,-0.39823622,0.6280404,0.9859497,-0.61056316,0.28407946,0.79816306,0.49356288,-0.033278104,0.58192784,-0.60611147,0.48582476,-0.51865244,-0.8722489,-0.5239668,-0.24993575,-0.55017203,0.6250933,0.66803676,-0.48143855,0.5200736,-0.91116196,0.053262405,0.6570293,-0.16952974,0.095928036,0.26414996,0.7789309,-0.15877423,-0.89005196,0.21461165,-0.6518167,0.30029264,0.11312005,0.064227894,0.28515938,0.3412419,0.6750637,-0.40502492,-0.40474406,-0.43090156,-0.3733269,0.16941589,-0.34500712,0.0005617171,0.44208238,0.48944098,0.08120202,0.5034954,0.3685713,-0.6046738,0.33462164,0.80192506,0.91239977,-0.35961846,0.97089225,0.31659472,0.19439909,0.6116325,-0.3928537,0.28790796,-0.71674114,-0.33210945,0.23425561,-0.58894545,-0.75407004,-0.30175057,0.6468689,-0.58680123,-0.2635052,0.569884,-0.5228661,-0.24045537,0.3059419,0.3876965,0.15602629,0.071844526,0.63410693,-0.5653836,0.789901,0.45096087,1.0440526,-0.015134899,0.8570396,-0.9485424,0.3054033,0.2873769,0.99954355,-0.7111231,0.15786354,0.7835502,0.9539204,0.50334036,0.31927857,-0.4091579,0.69093525,-0.42580587,-0.7012981,0.36447546,-0.2798577,-0.3196202,-0.6660845,-0.26752555,0.55863947,0.54720074,-0.07939102,-0.38675413,0.60177046,-0.21575806,0.50585353,-0.51917243,0.81420296,0.75543916,0.55269134,-0.28831327,-0.1392793,0.44084105,-0.5697852,-0.47571853,-0.43014994,0.66178226,0.019641021,-0.18209605,0.42128998,-0.6769112,-0.37602663,-0.041525066,0.5368076,0.39658627,-0.95418996,-0.60518956,-0.45937783,0.46788463,0.07907702,0.76605535,0.47077236,0.2832996,0.7112649,-0.6183637,-0.623021,-0.06532115,-0.09058422,-0.5564176,0.028037306,0.9455137,0.2810354,-0.34197378,-0.81275374,0.34340805,0.68673146,0.60297334,0.24278867,-0.53500557,-0.27266708,0.43923363,-0.64803594,0.83094096,-0.27885035,-0.6185089,-0.4181768,-0.48382518,0.54688966,0.44683754,-0.15792458,0.025772799,0.021253083,-0.4961304,-0.6393115,-0.34827426,-0.4388149,-0.31330356,-0.5374902,0.13527335,-0.6308778,-0.4871839,0.46599463,0.7610221,-0.118755065,0.021299412,0.8260613,-0.52345115,0.74955714,0.5379726,-0.4271584,-0.4083449,-0.7737129,0.5251309,-0.20891777
-fwer,0.46,0.31,0.1,0.84,0.27,1.0372654,-0.460852,1.1809939,-0.68757206,-0.912303,0.41076115,0.03746406,-0.15082803,0.77951133,-0.6483229,-0.6131458,1.1914815,-0.6013694,0.10700825,-0.5687846,1.0396118,-0.03632598,0.13197795,0.67640394,0.5749709,0.1922336,-0.9155023,-0.42152342,0.10825742,0.4771543,-0.28272444,-0.17239009,-0.5876934,0.123624474,-0.9329889,-0.89701843,0.04564398,-0.8264156,0.12015697,0.14936626,-0.38824132,1.0584353,0.7111738,0.5253092,-0.015176655,0.055856414,-0.14195836,1.4394952,0.3691728,0.9297663,-1.147115,-0.51429635,1.7299708,-1.1339964,-0.43418363,-0.48910922,-1.0117713,-0.8669579,-0.3403509,0.03995009,-0.8261569,0.8744543,0.25410396,-0.26512307,-0.74494386,1.0712078,-0.32420087,-0.39650485,-0.6611401,0.38177216,0.8071982,0.061115585,-0.6843795,0.6179672,0.390857,-1.0820345,0.17323034,-0.686871,1.1161754,-0.33229393,-0.41049865,-0.8510912,-0.27167982,-0.5138588,-0.78430194,-0.93750495,0.56694484,0.44052553,1.3986032,-0.27527156,-0.35882077,-0.21350446,0.9359068,0.63797873,0.9586376,1.3186529,-0.8615733,0.20347886,-0.14336173,0.50207746,-0.5337307,-0.44769746,-0.66874146,0.018429939,1.6600624,0.9466367,0.8656622,0.46673155,0.70255995,0.23408195,-1.1868521,-0.36002952,-1.0533355,0.5696866,-0.92978615,1.4280837,-1.1972818,0.49450153,0.88492316,-0.025566878,0.38482484,0.84797454,0.50319123,0.61093587,0.4923113,0.09654914,0.07176289,1.0596569,-0.26183477,-0.48315582,-0.09822793,-0.72747684,0.51316774,-0.60571694,-1.2773405,-0.75926846,-1.0015402,0.81277615,-0.62099636,-0.17209029,0.7421111,0.80716854,-0.17708758,-0.33874765,-1.1481068,0.5177182,-0.83727217,0.9660203,0.24629593,0.15088075,-0.18805799,-0.008287545,0.7479634,0.24725026,-0.6249292,-0.7856902,0.04048225,0.51067924,-0.45995456,-0.71968395,-0.5089245,0.4235218,0.06555808,0.6482435,-0.5153887,-0.44740984,-1.2301751,-1.4872222,1.314694,0.66189766,0.3695734,0.3766739,-0.49941894,0.6117778,0.5665779,0.29163304,-0.40524736,-0.9535567,-0.37227222,0.78134215,-0.44718412,-0.816905,-1.0970569,-1.009608,0.811751,-0.5539523,0.49342537,1.280102,-0.8993219,0.4383225,0.12176118,-0.014418602,0.52748626,0.51515,-0.37504283,-0.76100975,-0.9421702,0.81711686,-0.7101004,-0.51014984,0.65004814,0.2780164,-1.1182902,0.96286476,-0.34372574,1.0337257,1.2318091,-0.4093915,0.66088504,0.13731419,-0.13902545,-1.1187928,-1.040548,0.24901974,-0.3622601,0.1142114,0.28128964,-0.2174173,0.36395723,0.010109753,-0.8060634,-0.07558689,-1.0557466,0.72915465,-0.06758012,0.76296675,1.1770792,0.3051215,-0.6848537,0.31173283,-0.44659212,0.59351206,-0.7886316,-0.24871124,-0.5926502,-0.14100054,0.78951603,0.77423805,0.13858977,0.05979933,-0.14871402,0.29382598,0.4400682,-0.8434636,-0.024101298,-0.24047665,-0.08496704,0.62840444,0.22644602,0.66263705,-0.67056173,-0.44977525,1.4632996,-0.6436445,0.22020267,-0.54713994,0.22179496,-0.57569206,-0.9739206,-0.94562376,-0.86575174,0.7199772,-0.82163024,0.21557789,0.7064117,0.69589496,-0.8214935,1.0385646,0.758245,0.9717096,-0.56617785,-0.21575685,0.5499577,-0.49608952,0.3055516,-0.53531975,-0.39969483,-0.45176625,-0.6295883,0.21621381,0.5435495,0.91858053,0.4684438,0.8089737,-1.5337163,-0.7015388,0.70545626,-0.11141953,0.6671397,-0.816281,-0.119875394,0.42044437,0.8437096,-0.4352526,-0.32491875,0.47177625,1.2298301,0.85713935,-0.3653049,0.2856555,-0.9820482,-0.79289937,0.8175542,-0.066756256,-1.6851774,1.0329849,0.14915714,-0.9182357,0.4763712,0.16165662,0.6426209,0.14550276,0.74704474,0.37581328,-0.5189376,0.94267154,0.7887165,-0.88435274,0.6466803,-0.3887024,-0.1194809,0.043392744,-0.5126227,0.40892625,-0.07002128,-0.36798918,0.4641568,-0.9298126,0.4165651,-0.42570636,-0.43084493,-1.0772583,-1.0463908,-0.6450226,0.2641544,-0.22888412,-0.90565854,0.21832846,0.9071461,0.7822504,-0.6581048,1.075849,-0.6464149,-0.7999692,-0.5213917,-0.5712459,-0.48239824,-0.5928593,0.6880974,-0.9007374,-0.68828213,0.11095843,-0.8996762,0.7745948,0.40826142,0.19163316,0.04675211,0.9801589,0.028022489,0.40427402,0.7678632,0.76812905,-0.43219772,1.0318377,-0.6365522,-0.77621645,-0.19201912,-0.574722,-1.0295062,0.02144672,-0.02961462,-0.7419481,-0.59082484,-0.8671022,0.40934137,0.7202763,-0.033274267,0.3507073,-0.06117203,-0.23524293,-0.112182304,1.6379929,0.21387368,0.40941346,0.4419837,-0.5347985,-0.7441665,0.43815887,-0.4204992,-0.90473956,0.49526826,0.606454,0.30467036,-0.31350476,-0.12911162,-0.39359632,0.38297167,-0.41751078,0.6814466,-0.65632194,0.77053106,0.5904338,-0.6351821,-0.5761153,-0.25483692,-0.44844186,1.2395618,0.94155234,0.30383688,-0.6156933,0.518224,-1.1130426,0.6877789,0.37844718,-0.19931099,-0.014112713,-0.33126798,1.0557953,0.104395464,-0.91162556,0.394933,-0.18845604,0.99219984,0.2042036,0.44579047,-0.2431579,-0.88267505,-0.7776451,-0.2220579,0.87509996,0.87786156,-0.08372169,-0.5250727,0.5854427,-0.15478048,-0.07488048,0.7047919,-0.81836987,1.274774,-0.93359697,-0.72225636,0.29035836,-0.59638786,0.18071006,-0.15833351,0.65120673,0.4495152,-0.86177063,-1.1149349,0.96741,-0.029560903,-1.2361785,0.041537527,-0.5840328,1.0159179,-0.12589602,-0.07892485,0.7254916,-0.65150803,0.55446494,-0.95762926,0.024714377,-0.21907371,-0.6816351,-0.47183663,0.29396966,-0.24189986,-0.2567831,0.98600155,-0.85113233,0.8915215,0.009105174,-0.31585324,-0.8256419,0.6197396,0.8225791,1.4928293,-0.1300298,1.1719785,-0.45036685,0.45857123,-0.38204405,0.97822094,0.32177898,-0.7197623,-0.7012423,0.19689974,0.14681539,-1.0457153,0.26704448,0.25266254,0.14701866,-0.37906846,0.6722604,-0.79500717,-0.5652884,-0.66289073,0.7027791,-0.6902879,0.54380345,-1.1639907,-0.6819541,-0.48052958,-0.78136593,-0.829335,0.88417304,-0.9344265,0.09169977,-0.16826925,-0.66047853,0.056672975,-0.05321027,0.39926952,1.0137998,-0.4738122,-0.41021127,-1.08834,0.40037826,-0.16125816,-0.092266515,-1.2637527,-0.26596713,1.0519526,0.7456459,-1.1289481,0.31550953,0.0061221155,-0.8603944,0.4511083,-0.6992962,-0.40310022,-0.22535706,-0.0430619,0.036439877,0.81067175,-0.68687975,0.03673714,-0.5907807,0.45803395,-0.057207663,0.43491036,-0.89880776,0.42229438,-0.74260837,-0.58074516,-1.1024489,0.4740306,-1.3276788,-1.0764556,0.73606294,0.48918957,0.3823241,-0.4056395,0.10224224,0.25174117,0.73838353,1.0607768,-0.1550742,-0.5710813,0.9792431,-0.33266258,-1.2007483,-2.8600686,0.8190289,0.37966642,0.21504663,-0.48332396,1.104014,0.1672667,0.337083,0.4036751,-0.7906482,-0.5469803,0.20389648,-0.77545285,-0.6618664,0.27659103,0.9848903,0.34922838,-0.81088966,-0.7891102,0.6715258,-0.9035515,0.43955305,-0.9049252,0.041854203,-0.35666183,0.57092446,0.951667,-1.0915471,0.37865153,1.1260719,0.55875015,0.18833712,0.23048437,-0.29268008,0.12430224,-0.8479489,-1.4461164,-0.12376493,-0.61259574,-0.32186702,0.68703735,0.45963338,-0.7488728,0.8218955,-1.2939032,0.12287395,0.835659,-0.47259912,-0.070305936,0.23866792,0.58496577,-0.31506318,-0.80994666,0.103133425,-0.82578385,0.38097444,0.0031979827,-0.13953389,1.0506722,0.4046498,0.6891471,-0.52514464,-0.65183544,-0.43518046,0.05015053,0.18852241,-0.48399562,-0.020493181,0.5810271,0.45429426,0.027874315,0.76953125,0.704796,-0.99916834,0.55796874,0.7787486,0.699205,-0.53544253,1.4310893,0.20499067,0.8448698,0.58423144,-0.57965636,0.70023936,-0.95291805,-0.53525096,-0.014764508,-0.9126981,-0.85778326,-0.18253438,0.71651477,-0.7326535,-0.8058993,0.50246716,-0.9182482,-0.15583551,0.26897362,0.36161268,-0.09926808,-0.11334708,0.50971115,-0.7767843,0.99465114,0.7257828,0.950302,-0.09956591,1.0567505,-0.8127652,0.31856352,0.4395866,1.0031018,-1.1584723,0.37384772,0.95105356,1.4505671,0.12390024,0.61439604,-0.40035692,0.7700842,-0.63858646,-1.2951325,0.15474541,-0.52137804,-0.05314807,-0.8133836,-0.18987253,0.6143979,0.5622577,0.1913481,-0.28015476,0.27765253,-0.10702093,1.1078172,-1.045448,0.58503675,0.80546194,0.8676113,0.071285956,-0.1649255,0.3070417,-0.7376882,-0.48582014,-0.14766946,0.7892517,-0.26723638,-0.14175586,0.7599811,-0.59531134,-0.55577624,-0.13398898,0.674319,0.74818105,-1.2272949,-0.6033096,-0.1229654,0.71614367,0.0029799922,0.9056238,0.6479673,0.39332625,0.8188644,-1.0216436,-0.62570554,-0.14343399,-0.4212193,-0.44683933,0.3921184,1.2351027,0.314867,-0.13112094,-0.7987309,0.5238227,1.1211993,0.05773705,0.17745504,-0.6804274,-0.3601993,0.7091192,-0.7890577,1.1141472,-0.53785986,-0.9984212,-0.5644816,-0.7251121,0.5136918,0.6361086,-0.02984443,0.13684571,0.1907607,-0.53811496,-0.62029785,-0.3348345,-0.36927292,-0.14695644,-0.33411488,0.16825531,-0.854835,-0.6482291,0.3888963,0.9879304,-0.13010211,0.17329927,1.3557888,-0.86237746,0.76398575,0.4561953,-0.73411155,-0.3716337,-0.54121053,0.3204363,-0.17163391
-tactical-throw-away,0.02,0.31,0.6,0.53,0.92,0.78040606,-0.24175413,1.098041,-0.50714,-0.27979985,0.490602,0.043759394,-0.27573046,0.5061845,-0.9020412,-0.44383386,0.7726965,-0.6410868,0.2571405,-0.48693755,0.730487,-0.34636304,0.34945393,0.49448872,0.31157383,0.43329406,-0.44878164,-0.26458636,-0.087177396,0.1724986,-0.43577793,0.04202086,-0.19347523,-0.27428314,-0.55930096,-0.4020445,-0.37786812,-0.6294615,0.5382599,0.07995582,-0.23468252,0.7821953,0.47809526,0.16711901,0.088376306,-0.26140293,-0.13284835,0.7583967,0.57472324,0.6155734,-0.6351363,-0.8738685,0.7177573,-0.85568124,-0.08943804,-0.39497396,-0.72617704,-0.7143611,0.025860673,-0.14593634,-0.46059087,0.16362417,0.11017076,-0.7254113,0.12727922,0.6719445,-0.70581055,0.5851674,-0.46887857,-0.103605725,0.55149555,0.5769986,-0.49708432,0.31695047,0.3867511,-0.6335674,-0.13233845,0.13004614,0.68228096,-0.06056303,-0.64349836,-0.5010053,-0.18416007,-0.53209907,-0.57194394,-0.28377223,0.48298964,0.42795917,0.55721104,-0.5408081,-0.22273554,-0.070904694,0.32799092,0.61880714,0.39111987,0.70187867,-0.327451,0.43055835,-0.003036107,0.72999257,-0.11780809,-0.34248942,-0.32664478,-0.12557696,0.78971624,0.6693036,0.27142546,0.31049737,0.5607165,-0.09929661,-0.87729365,-0.4419284,-0.46551573,0.46062112,-0.08447702,0.6450602,-0.5473424,0.06823665,0.35710916,-0.065083966,0.041490056,0.599003,0.465876,0.7758714,0.03158306,0.12771031,0.3717691,0.7279228,0.22831695,-0.2778211,-0.7101576,-0.24733067,0.04547876,-0.12163219,-0.705125,-0.710243,-0.68382084,0.63335687,-0.3209977,0.08145476,0.49458465,0.2737698,0.22720118,-1.3969611,-0.7822693,0.5344936,-0.65819484,0.90612406,0.27081436,0.62098753,0.093520924,-0.15388872,0.22610877,0.33616504,-0.022016145,-0.73448515,-0.040858302,0.10864628,-0.21971479,-0.5447784,-0.18274827,0.58890617,-0.21948798,0.7192565,-0.6037413,-0.5292847,-0.9635765,-1.2944875,0.83152544,0.51303023,-0.0052068406,0.1665985,0.022194799,0.15985762,0.6195175,-0.22103953,-0.5037563,-0.85355395,-0.14026505,0.5343493,-0.36665916,-0.62961894,-0.41759974,-0.5554623,0.67870253,-0.5265352,0.032574214,0.5592973,-0.49009004,0.36827126,-0.036807276,0.4969646,0.22639471,0.71962494,-0.21540521,-0.6372414,-0.56337166,0.086804695,-0.45721927,-0.26016113,0.35991973,0.1963936,-0.44346568,0.8973959,0.060867924,0.19697893,0.10485909,-0.524999,0.731864,0.54280096,-0.16769269,-0.62459755,-0.022092234,-0.2180327,-0.34815663,0.040218767,0.5810628,-0.28137636,0.40572482,0.33520424,-0.6618602,-0.35836482,-1.0315908,0.64000845,0.1832403,0.49366066,0.64991844,0.15465356,-0.4374834,0.2140252,0.035208397,0.22885807,-0.62308556,-0.18300821,-0.30926785,0.08169776,0.7410062,0.38452917,0.11476323,-0.24105355,-0.030273618,0.23834185,0.12377662,-0.86468244,-0.21700715,-0.4037814,-0.346499,0.45805052,-0.07586733,-0.13649616,-0.45384187,-0.77285826,0.8315444,-0.40498525,0.5633069,-0.33701584,0.3747905,-0.88074595,-0.75777245,-0.36644557,-0.30097052,0.20279168,-0.6719972,0.079564214,0.15898095,0.6455707,-1.0926914,0.7670597,0.25663596,0.57506746,-0.6618008,0.013296337,0.33537665,-0.7349376,-0.09179554,-0.4797764,-0.49180788,-0.46568128,-0.06915984,0.26752666,0.518824,0.7555881,0.5637476,0.42521626,-0.9633129,-0.67709637,0.6949122,0.38933888,0.39442632,-0.58955175,-0.14949821,0.6622472,0.9247964,-0.3213759,0.24732994,0.556628,0.26797986,0.033276126,-0.085004844,0.19259122,-0.6798158,-0.5831315,0.09716685,0.19824962,-0.6161614,1.0474323,0.43989792,-0.6775258,0.2554856,-0.57586724,0.5557925,0.33161166,0.419006,0.07138323,-0.4739414,0.49861622,0.6181084,-0.404376,0.3907036,-0.6912235,-0.84182674,-0.3293597,0.16311352,0.059540283,-0.30462137,-0.23376778,0.6344838,-0.15927222,0.38088953,-0.20229779,-0.027726123,-0.8955228,-0.5866541,-0.33999228,0.078464046,-0.32140067,-0.34130567,0.017058987,0.5216613,-0.02477241,-0.64572257,0.40035373,-0.441759,-0.57046914,-0.07262069,-0.37381154,-0.50100356,-0.12776308,0.5719559,-0.122883186,-0.46753755,0.33135143,-0.40904853,0.5238569,0.44029275,0.26408583,0.2887258,0.44775063,-0.24600776,0.22612318,0.25675622,0.47814202,0.1689615,0.59216833,-0.2980963,0.028897129,-0.42909294,-0.49321124,-0.32400873,0.047328983,-0.33919877,-0.67647207,-0.107337095,-0.47171363,0.70292586,0.48807994,0.09833362,0.34195566,-0.0627832,-0.14055267,-0.28316242,0.9957893,-0.16189337,0.20612086,-0.19005872,-0.47360343,-0.6220751,0.22324106,-0.015819164,-0.35132974,0.690082,0.4783873,0.16861892,-0.2006583,0.36778736,-0.33768457,0.40614948,-0.5662189,0.6163295,-0.55633205,0.51214164,0.17219497,-0.38246444,-0.14020227,-0.6343306,-0.470166,0.62572515,0.37926087,0.2957792,-0.6688885,0.43240798,-0.48094323,0.48358035,0.22848517,-0.47029608,0.20977263,-0.76122826,0.27724,0.68431276,-0.68088806,0.37641904,-0.005150183,0.83684045,0.32961988,0.6580746,0.05508844,-0.59004784,-0.38086987,-0.49361792,0.6382769,0.80650854,-0.25260463,-0.71059936,0.4874426,-0.21011643,-0.15546273,0.4150642,-0.8487258,0.44933227,-0.67597497,-0.4398687,0.11174726,-0.50247043,0.48379123,0.020457195,-0.24730115,0.019980421,-0.406381,-0.8003341,0.36131015,-0.39785373,-0.7422441,0.3624675,-0.36117893,0.14109936,-0.2084564,-0.20478064,0.6909871,-0.25544414,0.10533838,-0.42993733,0.35236204,-0.54077387,-0.43323168,-0.5079858,0.31465507,-0.012229389,-0.50094247,0.7812204,-0.15803158,1.1339197,-0.57810533,-0.2323639,-0.4372177,0.48999128,0.5762451,1.0087106,0.56424725,1.0023183,-0.41024035,0.60794294,0.085141264,0.67764896,0.16756451,-0.3577355,-0.5075279,0.016769277,-0.017670821,-0.3837594,0.2093997,0.37224063,0.053765465,-0.33778146,0.43841866,-0.20813018,-0.3180759,-0.16262537,0.082738966,-0.2508504,0.68128145,-0.27138135,-0.517335,-0.2685904,-0.6155955,-0.54628605,0.33797905,-0.6378812,-0.32305965,0.2973852,-0.20742752,-0.18632987,-0.11065226,0.087041445,0.61277086,-0.6841278,0.2136167,-1.1345689,0.32677987,-0.2191732,-0.085254215,-1.0221711,0.11304411,0.7080443,0.6590284,-0.4489559,0.2025889,-0.09148376,-0.88563156,0.37075168,-0.21165352,-0.45964608,-0.89735675,-0.39394146,-0.011760625,0.69417983,-0.6459843,-0.20299837,-0.31147072,0.17730702,-0.06210406,0.16104458,-0.5058666,-0.0036554325,0.37428352,-0.2174788,-0.22710665,1.0728394,-0.81476563,-0.5158629,0.36793083,0.75833046,0.08164717,-0.16034567,0.35453722,0.56512004,0.48837316,0.868816,-0.34932935,-0.59803337,0.79139763,-0.34763938,-0.7973805,-4.148124,0.42566654,0.31436855,0.28010008,-0.5654108,0.36760405,0.4571903,-0.2017308,0.6853939,0.04115364,-0.6836767,0.18124194,-0.8037508,-0.49810213,0.1432098,0.526092,0.21221493,-0.50212663,-0.33567324,0.77168244,-0.6038246,0.3707443,-0.39312238,-0.16780987,-0.40906343,0.50648427,0.88230324,-0.48999432,0.2617121,0.6612746,0.4221818,-0.044090502,0.6366975,-0.6021447,0.45193446,-0.49859098,-0.7113078,-0.42984527,-0.08231582,-0.5812899,0.5591025,0.54404104,-0.28536043,0.5256775,-0.86668223,0.15628962,0.3684026,-0.16377608,0.103135124,0.19114232,0.99118817,-0.050798483,-0.78308433,0.09184879,-0.5251556,0.19186004,0.028167007,0.2142587,0.09544285,0.08223272,0.54018795,-0.2996573,-0.10478659,-0.38836718,-0.41501272,0.1358355,-0.38071415,-0.16670726,0.34432337,0.5473788,-0.022207437,0.40370902,0.26824614,-0.4556618,0.35698533,0.7242434,0.67187536,-0.28703558,0.91071945,0.272062,-0.09447692,0.51728535,-0.12881567,0.23213823,-0.6087375,-0.28572893,0.057323765,-0.41643578,-0.6897604,-0.23140988,0.5569018,-0.5485714,-0.2913096,0.48827648,-0.4218248,-0.16761307,0.28658628,0.28232855,0.06508294,-0.01716403,0.39926413,-0.4323395,0.5363521,0.3076776,1.056945,-0.09842132,0.86464256,-0.9472689,0.2598769,0.22713235,0.9223429,-0.6618094,0.108232796,0.60725266,0.96864504,0.62525195,0.23125665,-0.33103782,0.6509213,-0.28646865,-0.5744128,0.5471546,-0.13510196,-0.253054,-0.53977025,-0.33046845,0.61645514,0.37337917,-0.02721817,-0.32740548,0.72799325,-0.24197024,0.22188519,-0.40540987,0.9790027,0.7065683,0.43497944,-0.30723846,-0.11195673,0.4367193,-0.40012196,-0.5111606,-0.38710633,0.6672482,0.24741971,-0.25742275,0.30295715,-0.67641187,-0.42390612,0.13893753,0.37587026,0.30753744,-0.88581973,-0.6504077,-0.28954658,0.36251125,0.15301028,0.59479696,0.31281933,0.30590597,0.54572463,-0.58036166,-0.5989913,-0.10066114,0.010153492,-0.43819785,-0.106917135,0.8475114,0.22281626,-0.19435152,-0.7167841,0.14365205,0.56910044,0.790066,0.1477101,-0.469712,-0.1770176,0.34536654,-0.6186505,0.8525425,-0.21775049,-0.5068675,-0.3260808,-0.40438557,0.46495122,0.35968512,-0.33427143,0.04701693,0.095638834,-0.21454002,-0.4607062,-0.34044853,-0.6060572,-0.2921061,-0.5429329,0.18165633,-0.52951014,-0.40479583,0.324274,0.813501,-0.026430815,0.02413956,0.70277625,-0.48954877,0.4748148,0.49617153,-0.14657833,-0.37068617,-0.77476525,0.4856416,-0.15097716
12345jk12345,0.0,0.72,0.72,0.03,0.37,0.7543531,-0.29497012,1.1000837,-0.58880657,-0.31537014,0.5121473,-0.022983659,-0.261872,0.4846084,-0.80945617,-0.44899404,0.7950474,-0.47910246,0.25411803,-0.4854045,0.70486706,-0.39432862,0.29945254,0.5377439,0.36878848,0.40555054,-0.42146617,-0.29285222,-0.0243509,0.17364652,-0.38966978,-0.024213893,-0.28006828,-0.22276396,-0.58193386,-0.50348514,-0.35357204,-0.6207068,0.43570176,0.11092907,-0.2209596,0.8387662,0.5144952,0.25996456,0.09843085,-0.2787448,-0.18815279,0.74000555,0.5803909,0.60515726,-0.7005365,-0.9284897,0.82526517,-0.94918835,-0.1153165,-0.34261355,-0.67881286,-0.835673,-0.087176576,-0.12734635,-0.5163886,0.31654575,0.09411805,-0.76207113,0.033718072,0.677685,-0.6194961,0.45390964,-0.50278336,-0.06219117,0.56324077,0.5326839,-0.43795443,0.40770385,0.4151697,-0.70602846,-0.10325209,0.012515252,0.67092717,-0.13937189,-0.6122063,-0.5753673,-0.25261676,-0.46596178,-0.51841396,-0.33021545,0.44568518,0.40237406,0.66781104,-0.59947956,-0.23586005,-0.02698005,0.36411875,0.63786674,0.38671026,0.7003242,-0.35278276,0.3895039,0.034334484,0.6017888,-0.14468445,-0.3891992,-0.41116175,-0.2087306,0.8132007,0.63871807,0.3320999,0.28646356,0.60602707,-0.11659037,-0.8484188,-0.425702,-0.5261137,0.4565026,-0.17304946,0.79194677,-0.5244264,0.030957775,0.4223884,-0.022738453,0.011210618,0.6817287,0.45151,0.77134633,0.12572521,0.08144554,0.36713025,0.730454,0.15286401,-0.30823508,-0.708179,-0.20231564,0.11972737,-0.18059456,-0.679379,-0.6359495,-0.7364203,0.5731109,-0.34979993,0.0078096176,0.50724894,0.35247236,0.14017418,-1.209052,-0.8832379,0.5396861,-0.6159187,0.9413146,0.32880098,0.63382465,-0.019359006,-0.12500478,0.24698937,0.32494512,-0.115891755,-0.6731052,-0.0077187843,0.18021508,-0.17702012,-0.5518433,-0.15994972,0.5993668,-0.1443112,0.6742693,-0.58115715,-0.47006223,-0.99465567,-1.3400047,0.96694005,0.53084207,0.021986172,0.10379787,-0.05859989,0.24762815,0.6787835,-0.20796889,-0.45425233,-0.79711765,-0.10054417,0.45496628,-0.3575381,-0.73040825,-0.49572858,-0.6158935,0.7252767,-0.5731324,0.07950061,0.5807056,-0.5160377,0.42066726,-0.022921655,0.52526754,0.2146576,0.73204863,-0.22195798,-0.65426487,-0.51298434,0.11932927,-0.43223056,-0.3105306,0.4595551,0.20501938,-0.47596622,0.9116688,0.07183418,0.27511996,0.13029657,-0.54080343,0.6796799,0.53697497,-0.16598968,-0.6700841,-0.09540536,-0.16342832,-0.29289594,0.061950035,0.55432945,-0.28516194,0.46239486,0.3748569,-0.7082535,-0.31541264,-1.1111853,0.7058895,0.19865167,0.51069486,0.62461334,0.20170636,-0.41633585,0.14769797,-0.03631184,0.20102297,-0.6423148,-0.27874604,-0.29437304,-0.0036818825,0.75719464,0.35776213,0.16929466,-0.2525974,0.019391177,0.31603083,0.036089186,-0.88152415,-0.23902139,-0.32187846,-0.29626042,0.40593275,-0.012287975,-0.17924555,-0.5363052,-0.7773864,0.82410794,-0.3779075,0.5207222,-0.44769934,0.32488123,-0.903613,-0.73607963,-0.36158374,-0.27686986,0.30597368,-0.5915556,0.17544603,0.14155133,0.6509759,-1.080211,0.73995125,0.35681713,0.57045805,-0.6725782,-0.021435607,0.31239325,-0.721879,-0.17439774,-0.4762089,-0.3811325,-0.36153325,-0.12598152,0.2894132,0.47207853,0.725353,0.6130724,0.50268614,-0.8942277,-0.6903986,0.67763144,0.34402722,0.47024542,-0.60427654,-0.2010138,0.6892935,0.93279445,-0.2868852,0.17224973,0.5384191,0.3478548,0.015152095,-0.21814276,0.16763079,-0.64639795,-0.60068095,0.093277365,0.10770931,-0.7168179,1.0102636,0.4935954,-0.72621125,0.26717,-0.4461767,0.56128716,0.29112905,0.36566085,0.14835356,-0.3614943,0.4753931,0.56039536,-0.37058994,0.2953788,-0.5862856,-0.71376455,-0.29674923,0.14500089,0.09573741,-0.22367798,-0.21406385,0.609324,-0.15749165,0.4041058,-0.2201577,-0.044052213,-0.9004701,-0.5961831,-0.4142407,0.13240416,-0.34970242,-0.49166363,0.06939296,0.57963556,0.12033362,-0.7309311,0.52177334,-0.48663396,-0.63615906,-0.016937101,-0.3880658,-0.57757616,-0.10072596,0.6082176,-0.2471569,-0.5412723,0.254825,-0.4191043,0.552087,0.3971448,0.25927165,0.21230567,0.5490208,-0.22839543,0.15628183,0.35333937,0.49470288,0.20566863,0.6367359,-0.4423176,0.11973268,-0.40080547,-0.55262977,-0.35777083,0.040337943,-0.30801836,-0.6500137,-0.1716427,-0.48419195,0.65505075,0.41173506,0.085583985,0.3458203,-0.09191884,-0.15049571,-0.26962423,1.0844364,-0.11362261,0.18772309,-0.13261703,-0.51196736,-0.6442285,0.24766357,-0.041049667,-0.41488048,0.7253992,0.4266759,0.13510016,-0.19735135,0.26618278,-0.36459666,0.48877612,-0.6304654,0.6980267,-0.53034884,0.4578217,0.32431966,-0.39523882,-0.10073584,-0.5524414,-0.4259666,0.70478445,0.43837482,0.3857611,-0.72141886,0.48541027,-0.49493837,0.5586868,0.31320477,-0.40036914,0.12549824,-0.7342916,0.2990675,0.6061132,-0.756874,0.44896007,0.021169694,0.8362625,0.3596327,0.64644825,0.09478719,-0.5880882,-0.38069242,-0.4232208,0.6783041,0.834076,-0.24000223,-0.7120907,0.49485797,-0.23206674,-0.15795968,0.48574477,-0.8521285,0.5159257,-0.69543856,-0.49726442,0.0886641,-0.5312343,0.6395495,0.020362612,-0.16192436,0.124739714,-0.39573506,-0.84747463,0.39578018,-0.4147505,-0.7365101,0.30334997,-0.34623295,0.2602908,-0.15968117,-0.18653812,0.6828226,-0.25630826,0.10343047,-0.48801053,0.26263994,-0.52158195,-0.4825636,-0.50587183,0.36757746,-0.057508428,-0.4626091,0.8665998,-0.31534106,1.1035163,-0.4555182,-0.31515622,-0.42949602,0.5085098,0.6195811,1.0755016,0.38217703,0.9649567,-0.42280683,0.5508405,0.05844055,0.69482666,0.21527596,-0.3547194,-0.55870456,-0.08343736,0.022371195,-0.48103878,0.12196879,0.3958226,0.19175814,-0.3614549,0.487677,-0.21092689,-0.4181198,-0.18156286,0.13411765,-0.30114803,0.6535783,-0.36254928,-0.56086475,-0.31230348,-0.6412879,-0.5290251,0.4483433,-0.6908712,-0.24175897,0.19022237,-0.22764361,-0.18487307,-0.124575906,0.1934874,0.6078615,-0.5399966,0.17322046,-1.190398,0.3169172,-0.17466019,-0.14864233,-1.0624602,0.021622617,0.7777466,0.64303935,-0.46974683,0.27879858,-0.07452033,-0.82312,0.4119878,-0.22415921,-0.38307053,-0.8719703,-0.30861226,-0.057489205,0.7220706,-0.54540855,-0.17202581,-0.3186067,0.11088345,-0.069770575,0.21622145,-0.50445765,0.06190191,0.25777727,-0.313761,-0.2911717,1.0133022,-0.9466875,-0.47500575,0.43029466,0.79412514,0.10030529,-0.16313542,0.3518929,0.55509466,0.49868557,0.88120127,-0.29320943,-0.6704037,0.7992889,-0.35510373,-0.76991445,-4.1866827,0.52252674,0.24154742,0.24141139,-0.52782935,0.4855878,0.43545544,-0.079831496,0.64820975,-0.062445495,-0.6745362,0.15335187,-0.74563986,-0.443223,0.16421394,0.5542236,0.24565686,-0.59379894,-0.34233823,0.72292715,-0.61830425,0.389798,-0.42959994,-0.11455786,-0.4256184,0.4564273,0.80307746,-0.5550296,0.29599157,0.6996005,0.35305318,-0.08193942,0.60313934,-0.5958491,0.48266652,-0.41515964,-0.83536136,-0.4457655,-0.13990003,-0.5662013,0.57712096,0.52373654,-0.29677176,0.5453713,-0.8426791,0.13721438,0.4471066,-0.17828938,0.04401505,0.21294814,0.83331,-0.12251003,-0.7523462,0.10212143,-0.5869896,0.16217093,-0.0071523767,0.06441426,0.20945932,0.09138992,0.62335205,-0.33721027,-0.17463747,-0.35319948,-0.34312227,0.15083234,-0.36795267,-0.16291669,0.42225066,0.49145854,0.032697234,0.4509557,0.35685718,-0.5610035,0.34035197,0.71345365,0.71892494,-0.2966812,0.9760137,0.21660493,0.011184677,0.5198513,-0.26759076,0.24762216,-0.5585114,-0.26539317,0.06354099,-0.455179,-0.7561552,-0.22667205,0.5515133,-0.59151876,-0.24550682,0.44681233,-0.48963383,-0.15250358,0.28033227,0.2082505,0.09232984,-0.09428991,0.49454045,-0.48605677,0.66031915,0.31107864,1.1279216,-0.03539158,0.84230214,-0.9085885,0.25775424,0.2181964,0.9898643,-0.68370044,0.21251525,0.6982524,0.91922724,0.75811535,0.27886358,-0.3385795,0.6032201,-0.33619708,-0.58363473,0.4885373,-0.14088686,-0.2650801,-0.5129943,-0.26815426,0.52587104,0.39829877,-0.093287766,-0.30138844,0.64566004,-0.21412092,0.27239084,-0.3438987,0.9168644,0.6911942,0.47382763,-0.26304942,-0.052421268,0.3937471,-0.4625751,-0.39894012,-0.3799431,0.61074334,0.20055915,-0.21381047,0.29829296,-0.62747365,-0.48661944,0.03295129,0.36014897,0.33066133,-0.9192381,-0.540949,-0.2642614,0.3788001,0.13762279,0.6347527,0.43683422,0.26632848,0.60859364,-0.6232291,-0.597834,-0.11584069,-0.045980517,-0.452653,-0.038796745,0.8195551,0.24354331,-0.18654165,-0.74923104,0.1257686,0.580147,0.7273855,0.11918122,-0.50106865,-0.22431579,0.30847946,-0.7019557,0.8527328,-0.24972662,-0.47091213,-0.32874745,-0.35021082,0.38539857,0.3977579,-0.20862387,0.0039353874,0.11577257,-0.3054599,-0.45319408,-0.38003504,-0.6161481,-0.35219207,-0.51308674,0.12796023,-0.59573156,-0.50661767,0.31593466,0.7310978,-0.057526108,0.070186205,0.74795985,-0.42394733,0.5881287,0.46668518,-0.2783908,-0.32543716,-0.78918236,0.47871587,-0.17086408
1mas,0.01,0.0,0.28,0.59,0.71,0.78045523,-0.24441677,1.1968234,-0.5561283,-0.4105809,0.5453618,0.012828283,-0.27537626,0.52948177,-0.88407004,-0.40068784,0.72613084,-0.5868044,0.24800035,-0.4736748,0.8192606,-0.403255,0.24052952,0.5291536,0.43501174,0.4241617,-0.50432193,-0.36602244,-0.053997833,0.20939134,-0.44048166,-0.08621511,-0.37315297,-0.19493577,-0.6866465,-0.5514297,-0.36609703,-0.69465953,0.49128976,0.1864271,-0.24428137,0.84524965,0.52009064,0.27889666,0.07199577,-0.22018725,-0.16063207,0.81036574,0.6077107,0.66703856,-0.6788281,-0.894628,0.8507428,-0.9329228,-0.17043643,-0.3823976,-0.6950497,-0.86977655,-0.055564668,-0.16659014,-0.5118219,0.36262596,0.092059,-0.7812829,-0.014837392,0.77358407,-0.7069275,0.45254028,-0.4778177,-0.07281496,0.512001,0.5569771,-0.4761024,0.5211995,0.41633034,-0.8152822,-0.18152006,-0.00475531,0.70787835,-0.0863495,-0.62351376,-0.60119796,-0.22194564,-0.58001757,-0.5574571,-0.42710394,0.48886234,0.4587646,0.70247763,-0.64137715,-0.24127105,-0.024371983,0.42161235,0.65238154,0.42667142,0.77201855,-0.3815756,0.4088189,0.020142721,0.68828267,-0.15321963,-0.36668658,-0.38390854,-0.3582844,0.95070547,0.74643177,0.35480705,0.36887658,0.6033832,-0.13952495,-0.8966161,-0.37434027,-0.4810123,0.51367253,-0.26085484,0.789565,-0.589315,0.12911382,0.4644985,-0.080588765,0.02207252,0.6438018,0.5195452,0.8348953,0.16339129,0.12116818,0.31966215,0.8210625,0.13655251,-0.36868337,-0.69605047,-0.20333326,0.14331369,-0.23924722,-0.7747992,-0.66417646,-0.695929,0.6110017,-0.41113958,0.031206977,0.577921,0.39678812,0.12358158,-1.1293614,-0.9377132,0.5536351,-0.6783488,0.90037024,0.3621363,0.718085,-0.12955359,-0.12813671,0.33437952,0.32697266,-0.15122382,-0.69755167,-0.0024944693,0.1492815,-0.2155194,-0.62388647,-0.26585856,0.5899283,-0.1874448,0.67608297,-0.59491706,-0.4366594,-1.0120554,-1.4258806,0.9323633,0.5441599,0.09302474,0.16920486,-0.078676134,0.24554156,0.5971665,-0.15411337,-0.55265176,-0.7862296,-0.15145329,0.5310346,-0.43242332,-0.7569863,-0.5083276,-0.6329496,0.84445846,-0.6123623,0.15309678,0.6012288,-0.54853714,0.47920007,-0.06632591,0.5074493,0.14221244,0.57373124,-0.2689819,-0.69552547,-0.53349817,0.21268824,-0.4827631,-0.31900784,0.46719816,0.3005931,-0.5205018,0.9456734,-0.07106527,0.29758695,0.23769835,-0.47204405,0.7755329,0.52214324,-0.15645044,-0.68714523,-0.19980697,-0.1672351,-0.27951306,0.089860216,0.55020744,-0.33892992,0.42308894,0.35354707,-0.6689162,-0.39025858,-1.1723996,0.682406,0.20086193,0.5589433,0.7984432,0.16567716,-0.50815177,0.24158432,-0.063904755,0.23797026,-0.66836745,-0.23651674,-0.35603034,-0.097926624,0.7802257,0.3566382,0.15435083,-0.18348578,-0.095681936,0.35282502,0.13425978,-0.81487095,-0.2157062,-0.3527548,-0.3556161,0.39991933,-0.02477439,-0.11315943,-0.57041675,-0.7371033,0.9116218,-0.38814035,0.5358591,-0.4250044,0.30795237,-0.8295091,-0.77566934,-0.46925473,-0.38916802,0.28693163,-0.62066364,0.11455123,0.1824927,0.7530518,-1.0580484,0.784876,0.3830998,0.590256,-0.62173116,-0.056679744,0.33439383,-0.7376006,-0.09954026,-0.5156742,-0.4510038,-0.45345634,-0.117434055,0.35878006,0.43838248,0.8724416,0.5651676,0.48125458,-0.9664033,-0.6506628,0.730897,0.43463555,0.38738263,-0.6138995,-0.23392956,0.7396331,0.90360254,-0.31358302,0.019331021,0.56951636,0.4463737,0.12331216,-0.18088773,0.16414332,-0.7501206,-0.6169245,0.13966438,0.18410368,-0.778596,1.0491531,0.47366548,-0.7226781,0.29212764,-0.3041679,0.60308874,0.3449582,0.3946072,0.14722782,-0.48018667,0.477894,0.5698133,-0.420648,0.40471545,-0.611225,-0.7608378,-0.4189223,0.09250971,0.13848798,-0.22058406,-0.27382457,0.60494816,-0.14227018,0.40356666,-0.22844556,-0.06577264,-0.9120559,-0.7031115,-0.4199162,0.25606856,-0.3756703,-0.4137963,0.16414142,0.6303611,0.12866732,-0.65802413,0.5308173,-0.54424155,-0.6499139,-0.10307413,-0.3749924,-0.5704463,-0.17763159,0.6376612,-0.19414304,-0.6213027,0.30623743,-0.46210185,0.6564467,0.3971832,0.2725774,0.2886979,0.6085317,-0.2328774,0.18163955,0.465512,0.54602325,0.17124106,0.709798,-0.48674667,0.04432691,-0.3134778,-0.57506526,-0.4163849,-0.009304182,-0.3978193,-0.62874246,-0.18139347,-0.5117333,0.62824297,0.469758,0.10393337,0.39022097,-0.056854274,-0.10954954,-0.31714058,1.2220589,-0.16851944,0.198459,-0.033370428,-0.4416703,-0.7451967,0.2396959,-0.021359056,-0.44546825,0.70774746,0.53337526,0.15361679,-0.32883942,0.28305697,-0.39325693,0.49235663,-0.66134924,0.68420595,-0.5184298,0.5368333,0.31121045,-0.4267928,-0.19782048,-0.5668249,-0.4614996,0.77576804,0.56158787,0.3909837,-0.7309249,0.48525017,-0.51147544,0.58302945,0.31912765,-0.422349,0.18580821,-0.7369859,0.33038712,0.52051806,-0.77311873,0.45296246,-0.093877874,0.8462507,0.2958124,0.53981245,0.072300114,-0.5936836,-0.39095855,-0.4503071,0.7020763,0.8395952,-0.2660948,-0.71718156,0.5263029,-0.25022912,-0.17056769,0.46834254,-0.87471396,0.5549884,-0.8173509,-0.53166693,0.18884608,-0.4753038,0.60936284,-0.24211374,-0.10903427,0.12057629,-0.50478387,-0.7553475,0.5032466,-0.41822612,-0.7835787,0.2967161,-0.3715218,0.25410143,-0.1406564,-0.26204965,0.7059478,-0.21757281,0.12535103,-0.5193201,0.28010878,-0.60664815,-0.48998418,-0.57640874,0.46706462,-0.13828747,-0.4848055,0.8505879,-0.382769,1.1737273,-0.53979605,-0.3650333,-0.45455572,0.56197196,0.6356156,1.1784209,0.38146868,0.9448911,-0.36831167,0.598356,0.054287873,0.7562496,0.1835335,-0.47446024,-0.7098171,-0.0927715,0.021879816,-0.4729275,0.15730496,0.3413804,0.100895844,-0.38152882,0.4956961,-0.2922672,-0.4167474,-0.27538112,0.18664567,-0.3508625,0.67661554,-0.43326718,-0.5818968,-0.30237097,-0.70446324,-0.54044074,0.4303093,-0.67845505,-0.33183596,0.20953992,-0.17904544,-0.2430393,-0.15009002,0.2743707,0.70108944,-0.59238344,0.1765961,-1.1346602,0.34534228,-0.21569335,-0.104985416,-1.15635,0.117518686,0.8477718,0.6842931,-0.5140893,0.2644709,-0.08576953,-0.8576615,0.49531248,-0.2761328,-0.43082914,-0.90075177,-0.36259288,-0.08902064,0.786641,-0.57636976,-0.12704709,-0.30128363,0.17751218,-0.12270917,0.25665575,-0.6057659,0.06392466,0.26176104,-0.3126348,-0.3633429,1.0197604,-0.9856795,-0.5005627,0.44724095,0.78985596,0.11057233,-0.19234239,0.366015,0.5690593,0.4799577,0.9380451,-0.22127506,-0.6543179,0.9344422,-0.4169392,-0.8123895,-4.1241136,0.53826886,0.29811883,0.2001203,-0.5969553,0.46436572,0.4823794,-0.07234818,0.6498892,-0.12839289,-0.6807357,0.23425987,-0.71325505,-0.5218339,0.18776737,0.6168673,0.23142016,-0.58216435,-0.414671,0.74483,-0.68576664,0.36036572,-0.47525725,-0.09548213,-0.40925708,0.5028065,0.93799835,-0.5853957,0.30101714,0.7233535,0.42780733,-0.05772147,0.6482648,-0.5782158,0.44226816,-0.437345,-0.87371755,-0.46791592,-0.16761608,-0.5220549,0.57812876,0.5976433,-0.3105243,0.5144292,-0.89571214,0.08405061,0.49368668,-0.12689792,0.03646239,0.18688928,0.83724624,-0.2046324,-0.73953044,0.17200094,-0.56643033,0.2090877,0.05195986,0.12776962,0.11998823,0.12190043,0.6430234,-0.32672986,-0.23268299,-0.37495875,-0.39059195,0.149366,-0.30158323,-0.109895326,0.4070231,0.52476835,0.02585009,0.45636612,0.34124044,-0.5404324,0.3510373,0.7228063,0.7413697,-0.30464742,1.0889783,0.30240297,0.05373532,0.5055493,-0.3501858,0.22630084,-0.5758648,-0.30389884,0.13262282,-0.52616185,-0.81448513,-0.273308,0.6109681,-0.5199896,-0.2510452,0.4895061,-0.4666801,-0.19468796,0.28793076,0.26986298,0.043677613,-0.066878386,0.4949394,-0.47053924,0.6790924,0.36454755,1.124172,-0.03353278,0.8637567,-0.9497629,0.35334963,0.24006991,1.0193653,-0.7636348,0.1474343,0.69073,1.0412045,0.6590474,0.28890285,-0.33969867,0.6716514,-0.39264637,-0.64369684,0.57659024,-0.25698337,-0.29883605,-0.5928155,-0.301032,0.56335366,0.43384346,-0.09269324,-0.31809238,0.60018253,-0.2276086,0.30636472,-0.42169374,0.9901183,0.8000075,0.5356514,-0.28582862,-0.13366963,0.38351634,-0.46116245,-0.48926038,-0.4053145,0.60055274,0.18220676,-0.2295281,0.39391106,-0.6443803,-0.42269608,0.0017592595,0.4636095,0.33352903,-0.946726,-0.57721204,-0.33741537,0.42418936,0.16090001,0.72823393,0.40700737,0.29194647,0.6648297,-0.59425014,-0.6147609,-0.09128631,-0.055129264,-0.4901041,-0.109398246,0.8818801,0.23447625,-0.2144562,-0.8324484,0.25630853,0.6285904,0.75846654,0.18161269,-0.5103147,-0.27085882,0.41614163,-0.64957154,0.94620556,-0.21834053,-0.4734553,-0.39070153,-0.3818125,0.43593472,0.34414726,-0.24306747,0.09802311,0.15061635,-0.4354834,-0.48904002,-0.31461695,-0.59346324,-0.37907663,-0.56154126,0.14159212,-0.611083,-0.43584734,0.31368533,0.7391762,-0.07938823,0.04264227,0.8113675,-0.4620502,0.56862074,0.54424626,-0.36477146,-0.36438432,-0.7946891,0.42313263,-0.1681482
22Starter22,0.11,0.32,0.06,0.77,0.03,0.7013137,-0.30791035,1.1167867,-0.61434853,-0.2744013,0.5523317,0.07145326,-0.34721515,0.5526849,-0.73184377,-0.3728342,0.67182547,-0.4475013,0.19704309,-0.47275844,0.6953092,-0.4122512,0.29705134,0.5786238,0.4611024,0.47234264,-0.4435404,-0.40263924,0.021837553,0.12923385,-0.44693294,-0.12833555,-0.39536908,-0.17266454,-0.66994053,-0.5692265,-0.4236148,-0.7088891,0.35929042,0.1762943,-0.25897527,0.86696124,0.4751858,0.36638698,0.00190995,-0.24753535,-0.22612529,0.7927516,0.620347,0.7032986,-0.69083935,-0.8310427,0.8292745,-0.96098167,-0.17461425,-0.38717368,-0.73748857,-0.89993817,-0.06014023,-0.17555323,-0.4957544,0.45045978,0.042864017,-0.76722157,0.02443761,0.7655773,-0.7182303,0.47164804,-0.47844365,-0.0034380988,0.5574531,0.46857867,-0.5279054,0.42246127,0.4035434,-0.77995384,-0.13877146,-0.06593279,0.6566006,-0.18309245,-0.6127059,-0.676797,-0.26018396,-0.56745946,-0.7084934,-0.43150887,0.5551037,0.4948054,0.70590293,-0.58225095,-0.22113892,0.04694284,0.37243718,0.6457845,0.42088267,0.7533462,-0.39337525,0.3855096,0.045141578,0.6951562,-0.21060611,-0.43624455,-0.47203946,-0.37927413,0.9097709,0.7106067,0.28593323,0.33726868,0.5960135,-0.11760071,-0.79550177,-0.4054806,-0.5342242,0.46752733,-0.23882072,0.8097337,-0.5651994,0.018379701,0.312022,-0.08957315,-0.044501454,0.711379,0.56113774,0.8049096,0.24322967,0.035728574,0.39419347,0.73096555,0.13950227,-0.3617791,-0.7063031,-0.23251052,0.14357744,-0.2741098,-0.7696979,-0.7027423,-0.7687951,0.51722133,-0.46124035,0.078041814,0.5546409,0.4024352,0.06383602,-1.1119931,-0.86216354,0.63744926,-0.5311568,0.876322,0.31621608,0.7168855,-0.1803437,-0.076151095,0.40195104,0.24876651,-0.09308794,-0.774943,0.01314138,0.17226161,-0.18659228,-0.62440455,-0.23923178,0.6422569,-0.17519821,0.6492127,-0.6111014,-0.4173376,-1.0180281,-1.3471103,0.9084191,0.61047256,0.1439771,0.15642947,-0.09640058,0.3009672,0.61158687,-0.13340616,-0.507493,-0.71249825,-0.19672798,0.48233002,-0.4294757,-0.7690334,-0.5375168,-0.5624298,0.7642974,-0.6473163,0.11951515,0.59740597,-0.5130537,0.49928418,-0.10137929,0.48476943,0.21034056,0.58786565,-0.42757896,-0.723154,-0.51043105,0.11408885,-0.49694675,-0.3633914,0.48445666,0.30676544,-0.48358727,0.95145047,0.04971863,0.27771285,0.17961258,-0.43671882,0.8006647,0.5348172,-0.253927,-0.7641032,-0.08049734,-0.0799527,-0.29544157,0.09240555,0.5636623,-0.3396848,0.52858233,0.36657292,-0.7114653,-0.37640432,-1.0845784,0.7109911,0.2277433,0.65700257,0.756702,0.19772483,-0.47189447,0.15069865,-0.090007514,0.19268449,-0.6168018,-0.33385134,-0.34279555,-0.07161286,0.8010297,0.3033423,0.21580313,-0.2006069,-0.044571076,0.34014082,0.07978828,-0.8649187,-0.22311337,-0.28078133,-0.23981987,0.3392591,0.067359865,-0.17204699,-0.6324247,-0.78090805,0.88890404,-0.41771302,0.49885777,-0.4791526,0.31118822,-0.79791325,-0.8002037,-0.4551661,-0.31168723,0.26526347,-0.7238492,0.21294707,0.16466261,0.77422464,-0.98958576,0.73423076,0.4186624,0.50700825,-0.62841356,-0.0043090354,0.39606565,-0.7562514,-0.1849231,-0.48273832,-0.509692,-0.4060939,-0.21567562,0.34219298,0.40785953,0.8346216,0.6903516,0.58355874,-0.89283514,-0.65057886,0.7555429,0.4226496,0.3962182,-0.5745466,-0.1808786,0.7886738,0.945588,-0.37186167,0.009027521,0.49609685,0.4180524,0.11937456,-0.29005143,0.12287314,-0.7405962,-0.51316607,0.09604418,0.20444474,-0.71747553,1.0268812,0.437455,-0.65525067,0.31388453,-0.26772752,0.5997827,0.26975802,0.35520732,0.19957745,-0.5126469,0.51266676,0.52727664,-0.4273977,0.4976037,-0.5456214,-0.73893666,-0.37610966,0.04253665,0.13492402,-0.16032556,-0.29164872,0.5937182,-0.12451571,0.54039687,-0.2858382,-0.016792417,-0.8286658,-0.5991881,-0.38572112,0.25759614,-0.26790574,-0.48066896,0.16852327,0.7107562,0.13724247,-0.76855886,0.64590394,-0.53595155,-0.6408385,0.009898568,-0.32671824,-0.4889327,-0.15753059,0.62053347,-0.22929049,-0.595087,0.31414694,-0.36649683,0.67294073,0.44590276,0.25261718,0.26387507,0.6315305,-0.19020267,0.19507785,0.40715185,0.6089433,0.124604456,0.7784975,-0.4243265,0.078471154,-0.26790535,-0.6593922,-0.4199224,-0.05801065,-0.3653056,-0.71322346,-0.2116784,-0.5471503,0.5980921,0.47578782,0.051353786,0.38996404,-0.098299205,-0.29087925,-0.24077968,1.0856303,-0.17511797,0.23294884,-0.05900427,-0.3701984,-0.6850402,0.28165126,-0.01702571,-0.5321731,0.73840225,0.54592246,0.17135492,-0.2842169,0.2314758,-0.33664975,0.5607528,-0.7167721,0.76464623,-0.51694477,0.5293767,0.30814973,-0.44897616,-0.24437976,-0.51976407,-0.46462747,0.7479932,0.58546627,0.36030015,-0.6215832,0.47750238,-0.49596754,0.65192735,0.32910493,-0.44098723,0.1269875,-0.72202444,0.26041454,0.47790506,-0.7561826,0.48593068,-0.15570734,0.83612573,0.37761116,0.57911325,0.09915413,-0.5678274,-0.4331709,-0.44227794,0.7454389,0.7762037,-0.26012218,-0.7883187,0.5608573,-0.26160553,-0.0979736,0.54612386,-0.80809486,0.6008773,-0.7333776,-0.5833198,0.062596165,-0.5794129,0.6515673,-0.22387344,-0.04911834,0.1471427,-0.47929907,-0.7266771,0.44959134,-0.35594893,-0.7749598,0.27132025,-0.3998769,0.24854963,-0.122272395,-0.355406,0.63265777,-0.25447714,0.1528512,-0.5091028,0.18501033,-0.5679244,-0.46935007,-0.5791572,0.3833253,-0.17828439,-0.51404387,0.8208177,-0.5252054,1.1898214,-0.5145923,-0.38977376,-0.47873497,0.55547893,0.60402244,1.153859,0.39895812,1.0465262,-0.37043324,0.5736994,0.0024246608,0.69448745,0.18296011,-0.47085413,-0.6124288,-0.14741598,-0.010173358,-0.49940968,0.08129302,0.34947705,0.14476863,-0.36732137,0.4660877,-0.28491825,-0.47375518,-0.292211,0.22543012,-0.34130758,0.7306096,-0.46227196,-0.6144579,-0.3248822,-0.75764567,-0.48789793,0.48839307,-0.7091789,-0.33827946,0.18518849,-0.15187137,-0.32198727,-0.041940503,0.2896801,0.77164435,-0.38302985,0.17070946,-1.0806869,0.35694718,-0.21278402,-0.13678671,-1.0733457,0.13808462,0.7990207,0.6389775,-0.5213818,0.32991323,-0.07931829,-0.8514233,0.5092813,-0.26895288,-0.4121093,-0.88528395,-0.30275822,0.01748373,0.75338334,-0.5540184,-0.15129593,-0.30015966,0.09938037,-0.10221859,0.22437131,-0.5877961,0.07191639,0.21873102,-0.3262748,-0.39298856,0.9651577,-0.95001906,-0.5164938,0.43236798,0.7385297,0.20069653,-0.2606121,0.3417439,0.55708444,0.50477976,0.90354234,-0.29576895,-0.70302004,0.8547058,-0.48288807,-0.8282823,-4.3140383,0.531508,0.26984003,0.2113247,-0.5737507,0.53583354,0.41336313,-0.11163704,0.6808641,-0.091128856,-0.6202645,0.14870875,-0.6671415,-0.5247964,0.16127425,0.6873936,0.23642272,-0.5630451,-0.3775193,0.81868917,-0.66838586,0.37851638,-0.5112987,-0.13629197,-0.41669723,0.55159384,0.92297465,-0.5344815,0.3012366,0.7410224,0.47535655,-0.013719278,0.62686586,-0.6390252,0.4875609,-0.4221662,-0.8724279,-0.5181872,-0.2114132,-0.5770186,0.60508066,0.64319277,-0.3843587,0.4953125,-0.8309169,0.06835995,0.6111153,-0.16684361,0.06827002,0.22974041,0.7947278,-0.19012079,-0.83156633,0.23493814,-0.61244935,0.23653853,0.031486753,0.08632561,0.2000357,0.25919512,0.71738315,-0.3331478,-0.29133365,-0.42714006,-0.43841538,0.12352508,-0.33890793,-0.08699178,0.42769763,0.45966268,-0.00845394,0.45267496,0.28632203,-0.60631204,0.3331051,0.70991075,0.91494435,-0.22876705,0.9753268,0.3063771,0.11694979,0.56396437,-0.41717035,0.2492851,-0.62266505,-0.2919488,0.18450111,-0.502113,-0.8079153,-0.2721561,0.6429933,-0.5232139,-0.15405501,0.46778733,-0.4319919,-0.24004218,0.35335,0.27428013,0.11786509,0.04035268,0.550587,-0.48481137,0.7244028,0.44518372,1.1055679,-0.012043991,0.8365152,-0.95305336,0.35475707,0.21994938,0.9671995,-0.658895,0.1854968,0.7708791,0.98217875,0.62474984,0.28068465,-0.38111818,0.7101364,-0.35224783,-0.63258415,0.48442703,-0.24957909,-0.33635888,-0.625666,-0.3152589,0.5667264,0.507467,-0.11276395,-0.32119173,0.6035653,-0.20731556,0.43734714,-0.45632753,0.8802308,0.7735865,0.5087557,-0.36577913,-0.13356805,0.4365238,-0.5251329,-0.4322807,-0.38848382,0.6079394,0.102450155,-0.2867844,0.34383196,-0.59487194,-0.35806972,-0.012778609,0.43615204,0.3413356,-0.96579254,-0.56599325,-0.4049797,0.43039036,0.07090878,0.71198046,0.4330694,0.2909547,0.7237254,-0.6379168,-0.6669383,-0.10944857,-0.039563365,-0.55201256,-0.07988022,0.86960965,0.21030207,-0.2673431,-0.819942,0.22976524,0.6658188,0.73759735,0.18938103,-0.5249739,-0.31787077,0.36762443,-0.6293144,0.86868733,-0.20706724,-0.54279345,-0.34959948,-0.3939914,0.45600453,0.36497876,-0.17718048,0.051711205,0.06497976,-0.4840014,-0.54747504,-0.31526142,-0.51607645,-0.3540986,-0.4853329,0.10345051,-0.5316842,-0.42288086,0.4052616,0.7031448,-0.13672274,0.030040586,0.8099025,-0.4256877,0.6549322,0.58386624,-0.34229407,-0.40725857,-0.82317567,0.55890465,-0.17793047
